Abacavir -0.48767722 -0.4374572 0.07564601 -0.19617341 0.40402183 0.19950894 0.26718554 -0.22648825 -0.53417385 0.39241952 0.13473074 0.2663175 -0.23059662 -0.40600932 0.7932825 0.33096746 -0.066564426 0.20725748 -0.41887218 0.03226514 -0.050770376 0.11469023 -0.2128692 -0.56203496 -0.4123807 -0.24366066 0.055016994 0.4553313 0.020026585 -0.24900515 -0.47624627 -0.14403899 0.20551795 -0.069661625 0.3971803 0.41543794 0.16778952 -0.23369743 0.20378597 -0.09806609 0.2902173 0.022203684 -0.49123138 -0.11495154 0.37703598 -0.09035349 -0.5579477 -0.26437372 -0.40111092 -0.038288552 0.13928945 -0.1608288 0.09492056 0.013206393 -0.018850647 -0.17688237 0.15487121 0.06465403 -0.23241696 0.31898955 -0.11102373 0.29734337 -0.04635737 -0.54218066 0.4728988 -0.23764494 -0.08681733 0.14432184 -0.13093741 0.091418214 -0.16201694 -0.0036569906 -0.3450231 -0.63082814 0.31808746 -0.2533721 -0.406483 -0.124452196 -0.19981515 0.30046448 -0.36554518 0.6261894 0.58826315 0.39293176 0.5330667 0.0841018 -0.20448837 -0.77678406 -0.07832121 0.09652142 0.48017207 -0.6406883 0.32297537 -0.09910595 -0.16847874 0.25247222 0.04639977 -0.2385362 -0.08308687 -0.12943874 -0.26787212 -0.07128274 0.099411085 -0.31995276 0.3396819 0.25526935 -0.43397072 0.5120688 0.5430676 -0.81141895 0.076341145 -0.6097016 0.15075698 0.2425233 0.072592005 -0.19666961 -0.2244886 -0.12766439 0.268657 0.56528777 -0.015595345 -0.27131233 -0.3515673 -0.15114148 -0.384961 0.0511922 0.030883027 -0.033765137
CCL5 -0.35663107 -0.4059707 0.4432698 -0.39876497 0.41259468 0.12691723 -0.14018759 -0.13272338 -0.22575897 0.32148364 0.2111146 0.07506845 -0.27067065 -0.59578294 0.69731957 0.10420103 -0.028840734 0.2948276 -0.29325628 0.014526656 -0.09324914 -0.0016120786 -0.22648014 -0.43724483 -0.19415799 -0.26387337 0.05025963 0.4189605 0.042138267 -0.14939472 -0.2806225 -0.16395459 -0.13552028 -0.18345447 0.39616302 0.5755341 0.1492556 -0.46018726 0.18265076 -0.035765775 -0.01605694 0.061312363 -0.27740297 0.05206518 0.39471593 -0.046174526 -0.6075737 -0.30183727 -0.12992059 0.013273898 0.13416278 0.098120615 0.29528987 0.03286487 -0.15429573 -0.43127054 -0.08951518 0.07561447 -0.53548354 0.47402227 -0.34005105 0.3085001 0.30226538 -0.5982318 0.10612792 -0.19163601 0.06411175 0.035004366 -0.05431742 0.08883991 -0.47411448 0.107304506 -0.56625694 -0.4972964 -0.0056752185 -0.47967714 -0.7994327 -0.076963656 -0.30347246 0.5579197 -0.08537941 0.5091799 0.55614394 0.47621435 0.4609546 0.09134332 -0.10135324 -0.8168751 -0.2095886 0.21093363 0.38100794 -0.5071779 0.07988729 0.07835555 -0.19024913 0.13378395 0.18008561 -0.18373123 -0.33525732 -0.4262604 -0.25049978 -0.17285469 -0.16707039 -0.3032983 0.57442415 0.35722765 -0.12389565 0.5481331 0.5816754 -0.6520708 -0.11371255 -0.8192882 0.22365282 0.08238787 0.091124244 0.048568264 -0.07442242 -0.04455034 -0.13088405 0.08052862 0.23527738 -0.10335168 -0.39566118 0.40565062 -0.36504307 0.22233209 0.037985537 -0.12326122
IL10 -0.21780607 -0.6702467 0.1024386 -0.22430822 0.1098118 0.20019373 0.04087557 -0.20775852 -0.20286882 0.25566366 0.10729977 0.19240619 -0.29902494 -0.6935415 0.53819346 -0.09641843 -0.014824964 0.2704052 -0.13163683 -0.23193304 0.10779335 0.06476305 -0.29545692 -0.52743334 -0.2916999 -0.11592796 0.028708655 0.22052282 0.1654586 -0.375521 -0.225458 -0.26332277 -0.067896925 -0.042996082 0.20110986 0.4370036 0.119235575 -0.4191156 0.12222674 0.25921756 0.4696147 -0.014101922 -0.5662036 0.03752964 0.40930226 -0.022013739 -0.58165 -0.19299984 -0.2343939 -0.026519595 0.3269693 0.11896134 0.18195984 0.51378816 -0.1772582 0.22962898 -0.162283 -0.058578227 -0.23225413 0.35987526 -0.24880353 0.34516475 -0.021187406 -0.13877496 0.03765665 -0.015107257 0.09397673 -0.14884041 0.060772378 -0.15570056 -0.3604007 -0.19883318 -0.29953235 -0.5517266 0.15029567 -0.0048683654 -0.43621975 -0.00034925708 -0.19535945 0.5060148 -0.54572535 0.4527458 0.38478 0.31559342 0.24488804 0.06407372 -0.05216803 -0.55856514 -0.307988 -0.00016067924 0.07499454 -0.24912517 0.19618213 -0.019530276 -0.01459565 -0.04308573 -0.22459261 -0.23641977 -0.32938328 -0.10909774 -0.30851522 -0.026316324 -0.16652575 -0.13385439 0.36212105 0.21875376 0.0005574346 0.2500937 0.4937083 -0.71265763 0.12378812 -0.48755163 0.3607396 0.13063434 0.12195927 -0.037037738 -0.07894226 0.1544243 -0.2027402 0.4453503 0.32038036 0.034830213 -0.3447681 0.39560136 -0.6691121 0.022609627 -0.2743685 -0.21550503
CCR2 -0.35029408 -0.18224409 0.2380256 -0.43937787 0.45410654 0.34518844 -0.22257169 -0.10182247 -0.20994078 0.36612663 0.19010727 0.1717127 -0.30827287 -0.619019 0.65337723 0.13831924 -0.019467492 0.22488292 -0.22592251 -0.05446955 -0.11193916 -0.121948786 -0.21930516 -0.41506147 -0.2392287 -0.07678341 -0.08363999 0.34159428 0.0067358804 -0.2087451 -0.36145017 -0.27005824 -0.13690034 -0.098735936 0.39647844 0.4915198 0.11425796 -0.4006587 0.22923437 0.120946646 0.022690294 0.15824458 -0.23581661 0.17218657 0.45636946 -0.03446264 -0.5445141 -0.33516327 -0.124065764 0.018158464 0.14944027 0.15017346 0.22630154 0.07261729 -0.09878829 -0.45529622 0.04513182 0.08474018 -0.64002335 0.542961 -0.28576395 0.2601902 0.1961019 -0.5882124 0.15939903 -0.25057626 0.0855282 -0.15340708 -0.18249112 0.10880825 -0.4006603 0.14263156 -0.547457 -0.5245376 0.03227302 -0.39445445 -0.7158264 -0.11011916 -0.3326691 0.57136756 -0.12628545 0.55636185 0.5179245 0.47902507 0.4040846 0.1516966 -0.06142019 -0.8192386 -0.23400357 0.17660014 0.47741365 -0.43857345 0.23943858 0.004564546 -0.19411223 0.12636997 0.088220514 -0.08544595 -0.19925068 -0.36120653 -0.26904228 -0.24224435 -0.14757097 -0.3681001 0.53059566 0.24091895 -0.12010165 0.44813314 0.63054353 -0.81138086 -0.038992602 -0.8307371 0.33904222 0.075770654 0.13297231 0.04744768 -0.17706792 -0.057489567 -0.08661835 0.17019723 0.41103303 -0.18906023 -0.3991592 0.39130574 -0.46436557 0.14601487 0.024563113 -0.0019544566
CCR5 -0.3199474 -0.27437705 0.43193498 -0.32406202 0.46807367 0.24764942 -0.16206641 -0.15498191 -0.14859058 0.2660296 0.22204266 0.014863457 -0.27577692 -0.6702567 0.67698824 0.24547467 -0.14400727 0.25541306 -0.15866032 -0.078300074 -0.08963611 -0.11339342 -0.18758637 -0.48246983 -0.16424613 -0.07453804 0.05048936 0.42989966 0.0481949 -0.09671047 -0.38659427 -0.13304652 -0.17014761 -0.23656447 0.42345855 0.4730935 0.2047956 -0.29172906 0.21520321 0.014704697 -0.10490977 0.024518263 -0.20756228 0.1743382 0.4306481 -0.15064868 -0.5825265 -0.34178403 -0.1616978 -0.10770869 0.21614045 0.21851625 0.29294798 -0.014614449 -0.18806231 -0.5057386 -0.083963424 0.07906828 -0.5170026 0.45409498 -0.38321495 0.26680994 0.24514857 -0.5111962 0.07366806 -0.3154508 0.05669452 -0.08307745 -0.108649574 0.15194349 -0.5484251 0.18961258 -0.5071235 -0.437687 -0.018145012 -0.456064 -0.65675914 -0.12829342 -0.3572799 0.5819211 -0.24724068 0.5871793 0.57781845 0.35688993 0.3208897 0.04871995 -0.07565653 -0.8306166 -0.3565299 0.012072192 0.36947247 -0.5610119 0.15869577 -0.011876279 -0.1770481 0.02265944 0.17815165 -0.13654836 -0.22918195 -0.34531516 -0.31582832 -0.22743589 -0.14821757 -0.41587117 0.6446824 0.25524926 -0.0960116 0.58706975 0.56301606 -0.71824896 -0.18573844 -0.83460164 0.18457516 0.17798623 0.16509433 -0.003149302 -0.23943354 -0.11203972 -0.1444205 0.06501304 0.29770005 -0.21857181 -0.39716053 0.3837779 -0.44297102 0.0017598135 0.054399613 -0.06645184
FCGR3A -0.6214713 0.00086030364 -0.07424698 0.00043664753 0.5855381 0.44392213 0.32633722 -0.21095972 -0.54876024 0.41882852 0.28863996 0.21018094 -0.39176127 -0.30143008 0.5412773 0.7225117 0.121660866 0.18937454 -0.5948692 0.4256228 -0.27707118 0.1586748 -0.18413289 -0.75606525 -0.4375376 -0.14146139 0.049532652 0.30456322 0.20212285 -0.0073581203 -0.5618684 -0.004144633 0.23596098 -0.32317558 0.43056914 0.5076178 0.37917128 -0.28211516 0.19160141 0.07204035 -0.008115641 0.014667761 -0.5377584 -0.2566612 0.75618446 -0.105340414 -0.5697462 -0.765876 -0.11888803 0.14063068 0.042767733 -0.028614748 0.3273259 -0.19621408 0.06483565 -0.36463532 0.42276356 0.0067133326 0.01303255 -0.0016336596 -0.2654207 0.40411752 -0.08889923 -0.31554386 0.4288483 -0.41106048 -0.34500906 -0.2662007 -0.0671212 0.13776217 -0.12776761 0.119948514 -0.049907032 -0.74104 0.13392587 -0.49045965 -0.056442484 -0.0025011797 -0.30492398 0.10888112 -0.5299354 0.533734 0.4621009 0.16510479 0.69700205 0.2142762 0.06371128 -0.5533087 -0.18775325 0.007136761 0.5002656 -0.4742862 0.01522624 -0.11759277 -0.40844876 0.766445 -0.09725141 -0.09139528 -0.13753785 -0.19977474 -0.18899637 -0.25986433 -0.013140829 -0.52940434 0.3557834 0.268785 -0.47583765 0.35889938 0.4713007 -0.42838275 -0.2877347 -0.56766135 -0.18984449 -0.07165321 0.30589646 -0.051260576 -0.10584453 0.024565836 0.22765958 0.41587445 -0.200748 -0.40047306 -0.5058398 0.13158873 -0.29447487 0.059344262 0.19396614 0.05382104
OAS1 -0.60999876 -0.6780128 0.014547393 -0.03550056 0.5867616 0.2711329 0.16917475 -0.1267159 -0.6877338 0.4312758 0.23038577 0.15572724 -0.19225562 -0.6931099 0.7979688 0.4468805 0.17303781 0.1295312 -0.61943984 0.22976825 0.011318666 0.05371927 -0.26026392 -0.5486339 -0.45321676 -0.27112588 0.12456556 0.66358095 0.33584657 -0.1694515 -0.31150475 -0.09663364 0.3941164 -0.3060233 0.25372523 0.5112191 0.38159168 -0.349843 0.34313822 -0.02622033 0.19945727 0.083366215 -0.49717247 -0.12330717 0.81091815 -0.32673296 -0.49610952 -0.7420043 -0.21503122 0.09995583 0.21467611 9.96524e-05 0.30634674 0.15341589 0.02482141 -0.26817918 0.21771725 -0.12173975 -0.23477067 0.18597496 -0.20530649 0.41883326 0.23854677 -0.3191955 0.26824898 -0.3250192 -0.15469258 -0.13014182 -0.02557287 0.49099618 -0.16083191 0.19212863 -0.32833004 -0.7219108 -0.013804968 -0.32368472 -0.3281398 0.09833888 -0.39053732 0.3301307 -0.13063112 0.6446972 0.5332674 0.36803484 0.51610905 0.32859072 0.2635501 -0.57371 -0.26664308 -0.17766751 0.5623883 -0.60531276 0.21767132 -0.13165294 -0.16877516 0.65942043 -0.039585445 -0.13951395 -0.3592022 -0.16217974 -0.35146105 -0.20257679 0.027042916 -0.6860438 0.6497153 0.32545763 -0.4010088 0.45415905 0.5957014 -0.51732874 -0.12777235 -0.81123906 0.0904526 0.2206419 0.16678979 -0.4191965 0.0023234545 0.102601826 0.03151811 0.6023851 0.061635774 -0.24618651 -0.37321022 0.2547626 -0.36213008 0.11949966 0.37559205 -0.0020517756
Abarelix -0.060165316 0.12897435 0.0083737355 0.08740341 -0.0037794728 -0.33321464 -0.059386116 0.04242605 -0.023408301 0.28189328 0.48667258 -0.28261125 0.13309361 -0.5341528 -0.27327946 0.3642415 -0.36379316 0.37956786 -0.08294856 0.94116557 0.14901936 0.6732819 -0.6198566 -0.28397906 -0.2576761 -0.18923652 0.18550879 -0.25938088 0.28693718 0.15174486 0.49040705 0.10283815 -0.060269088 0.3948221 -0.34814385 0.12110285 -0.04040224 -0.097608544 -0.67335427 -0.111231595 -0.25886515 0.3075809 -0.23666939 0.00031281784 0.082326084 0.109808445 -0.91821563 -0.3880093 0.06670995 0.15376969 0.4305317 -0.06812902 -0.63348436 0.3053512 -0.2674736 -0.4079485 0.37986097 0.24678482 -0.18793473 -0.0037162716 -0.13106461 -0.18668517 0.20430812 -0.38868707 0.11549188 -0.07495823 -0.0249417 0.06310898 -0.54447234 0.051811304 -0.19133008 0.2752348 -0.56571364 -0.14207849 0.04928297 -0.43327755 -0.09841285 -0.26816404 -0.5714811 -0.30704907 -0.39332485 0.19343501 0.25458243 0.028371345 0.41945335 0.46903294 0.5650128 -0.4849456 -0.02952233 0.5747082 -0.28215274 -0.16622458 -0.17464106 -0.68725514 0.32586578 -0.05380439 0.12953895 -0.1641437 -0.67906904 -0.31193644 -0.10872398 0.37645537 -0.1603507 0.07285649 -0.26418248 -0.19761147 -0.1359662 0.060296915 0.46983272 -0.47515133 0.19758037 -0.13889323 0.46714464 0.15985745 -0.28099307 0.2779892 -0.08884399 -0.60368955 0.0770491 0.05684826 -0.1994345 -0.35775295 -0.072731614 0.06684093 0.12870458 0.017725136 -0.0012835432 0.304735
RNASEL -0.03284362 0.13413395 0.026794448 -0.03029162 0.19395393 -0.07544077 -0.03505665 -0.15011798 -0.12018562 0.21577242 0.5828444 -0.6300622 0.31011266 -0.5373051 -0.2788159 0.847471 -0.36657774 0.07628236 -0.013802007 0.7889017 -0.06438841 0.5791449 -0.7324807 -0.5440862 -0.24854605 -0.29434332 0.2002594 0.034573007 0.26185927 -0.044706944 0.42768967 0.16207723 -0.29234305 0.19508092 -0.4622927 -0.112525925 -0.017225137 0.049660344 -0.25361106 -0.41533512 -0.48384017 0.33573064 -0.16132504 0.15155484 0.08141655 0.22237006 -0.6865345 -0.53100795 -0.09221788 0.06441042 0.23169282 -0.18727627 -0.5884357 0.3637305 -0.11284224 -0.406036 0.28091162 0.15173759 -0.334456 -0.023415864 -0.33287627 -0.1335307 0.2825572 -0.50192237 -0.024255676 -0.008104665 -0.22628929 -0.21389975 -0.48899361 0.17237668 -0.06702466 -0.07859401 -0.5669838 -0.089369394 -0.11013795 -0.18059132 -0.055101074 -0.5473601 -0.5181871 -0.30657002 -0.04259264 0.08582149 0.48115566 0.12133769 0.08207884 0.44346863 0.40305933 -0.5919493 -0.048886668 0.39425796 -0.28239435 -0.12385209 0.06583322 -0.55875146 0.10576342 -0.19417655 -0.012803277 -0.26492572 -0.5329903 -0.38955507 -0.46079335 0.34563625 -0.10714077 -0.12663387 -0.34497032 -0.31262305 -0.068597876 0.25643912 0.45452303 -0.0827008 0.17311063 -0.33731368 0.42333323 0.3190415 -0.08329219 0.30325013 0.13676594 -0.21621498 0.325186 0.35505983 -0.2509864 0.12549023 -0.30219653 0.2238344 0.0042531732 0.15379004 -0.09421584 0.3670704
BRCA2 0.019204086 -0.10309844 -0.24552165 -0.032546807 0.032794856 -0.091459796 -0.16722521 0.05520708 0.012589051 0.28662097 0.17206135 -0.59005827 0.25828582 -0.37740448 0.046683453 0.26956987 -0.1880586 0.3132016 0.037711564 0.3985427 0.1061802 0.4303423 -0.54381 -0.33700362 -0.2186561 -0.09886049 0.06141814 -0.18509918 0.021030435 0.017933518 0.1383037 0.12419691 -0.21784507 -0.017693501 -0.4932733 0.40671962 -0.13740426 -0.18272199 -0.23131748 -0.110372 -0.47287264 0.25740978 0.19465011 -0.050558962 0.5666088 0.14394736 -0.83059764 -0.4244528 0.085674666 -0.033371657 0.3227339 -0.4385592 -0.40613848 0.18624394 0.18235162 -0.4123255 0.5522475 -0.3400135 -0.22716093 0.26986337 -0.2548108 -0.40668717 0.070870906 -0.37565288 -0.12144768 0.42496186 -0.2862709 -0.29535866 -0.6643147 -0.14265168 -0.3276696 0.3796423 -0.6211658 -0.15397306 -0.00912316 -0.9736502 0.0014384219 0.07166476 -0.36404747 -0.052704427 -0.20566688 0.07803277 0.3019505 -0.15675044 0.013942591 0.6576155 0.4383389 -0.30622333 -0.20013683 0.20899019 -0.29346496 -0.4012348 -0.12906215 -0.2235383 0.30627543 0.08846189 0.11844122 -0.17866877 -0.6849096 -0.5025554 -0.34686983 -0.15568292 -0.15559644 0.26293826 -0.34822518 -0.17888947 -0.13178556 0.34584764 0.27905902 -0.2652611 0.24857518 -0.049083445 0.21555366 0.08775908 0.18427816 0.29095972 0.1067237 -0.33585832 -0.21568698 0.27260536 -0.26455936 0.15432988 -0.2617507 0.13218875 0.11621199 0.44214875 -0.6590915 0.13467777
PTEN 0.07327218 0.28372204 0.19218124 -0.0014747976 0.23246309 -0.33847162 -0.3318923 -0.18214777 -0.15678598 0.2649469 0.5021254 -0.38320243 0.3549002 -0.44220147 -0.3942509 0.69496685 -0.28692275 0.46454468 0.096597746 0.99685127 0.015361563 0.61903256 -0.8350366 -0.4926041 -0.14414382 -0.39217177 -0.05491726 0.11612869 0.26183924 -0.20276178 0.10791187 -0.042932373 -0.42166626 0.19679138 -0.10930778 -0.27496955 0.047552053 -0.34788656 -0.3676096 -0.1439644 -0.20594893 0.41436937 -0.1213744 0.021650717 -0.054325927 0.15942782 -0.6696649 -0.40914893 -0.21352181 0.19299902 0.21541506 0.106842786 -0.39776322 0.4448696 -0.025310025 -0.45337754 0.4659174 0.1536157 -0.4936446 0.32837787 -0.4632151 -0.00832556 0.27992263 -0.5327263 0.038492575 -0.20059198 0.027395971 -0.17688106 -0.62784344 0.028842185 -0.086115465 0.020934517 -0.38746157 0.118683346 -0.14334843 -0.3393507 -0.09246422 -0.34057364 -0.32143095 -0.11974786 0.006394713 0.048981186 0.42791158 0.08749083 0.29832816 0.79135793 0.42792967 -0.4090752 -0.06604838 0.3641716 -0.24399287 -0.13272558 0.08454262 -0.47788543 -0.038269155 -0.41934714 0.12514776 -0.20469756 -0.60043037 -0.48272818 -0.49848992 0.2635642 -0.34636104 -0.007058924 -0.20352058 -0.24605666 0.10902005 -0.24060138 0.4001111 -0.08438102 0.073596396 -0.21595743 0.3896354 0.5436956 -0.6950106 0.55411583 0.023683885 -0.28505218 0.10961344 0.31866738 -0.11949027 -0.24329916 0.0795338 0.17034735 0.038706295 0.095252454 -0.11650874 0.62411577
AR 0.32218972 0.21547711 -0.075211406 -0.09115065 -0.0007507603 -0.09264922 -0.11058737 -0.094945885 0.0041442504 0.15841146 0.34570274 -0.50318766 0.17582853 -0.58613074 -0.10844861 0.54034746 -0.5346537 0.13173036 0.119754 0.45769542 0.03255962 0.39593378 -0.6499333 -0.48394826 -0.25915676 -0.29272845 0.52631354 -0.13225052 0.23326758 -0.004340523 0.13290842 -0.101631045 0.06312296 0.20774671 -0.33486402 0.27538362 0.0064416546 0.091167234 -0.13681956 -0.044661324 -0.34316295 0.04067969 0.14646566 -0.33154798 0.24827309 0.14057486 -0.61863124 -0.4047785 -0.09715187 -0.047775824 0.4276242 -0.2682304 -0.57339823 0.20224139 0.14413379 -0.43148136 0.5155009 -0.26996046 -0.38784117 0.06710444 -0.12492974 -0.23447691 0.15197128 -0.22740187 0.06698618 0.12822442 -0.04305809 -0.09860714 -0.62277186 0.0077301697 -0.06691916 0.08084183 -0.8389418 0.071269125 0.16557683 -0.7451342 -0.026056372 -0.23254244 -0.35053143 -0.2912377 -0.046307392 -0.014408367 -0.01505665 -0.03557925 0.22904629 0.44050342 0.05333402 -0.47907755 -0.02096721 0.10749062 -0.38576844 -0.00066352455 0.148692 -0.3374591 0.3498653 -0.21127532 0.009426859 -0.39102468 -0.49970812 -0.33329332 -0.471946 0.013554995 0.18680365 0.1992265 -0.2986427 -0.26131642 -0.060772877 0.286251 0.5010345 0.0025443062 0.23262851 -0.12956713 0.10293181 -0.0016801986 0.07943836 0.39556903 0.21239218 -0.41001862 0.2865104 0.32037634 -0.1917815 -0.038947478 -0.027465476 0.16891624 0.0837311 0.32690677 -0.54817903 0.44892138
CHEK2 0.08967336 0.243466 -0.066837564 -0.3570626 0.16872276 -0.06586973 -0.30107456 -0.168747 -0.06661819 0.06653615 0.10237264 -0.3403302 0.23922595 -0.7157104 0.015353999 0.25712377 -0.5716727 0.111000225 0.26852477 0.43352124 0.06846168 0.2594637 -0.55127007 -0.38405308 -0.12510517 -0.41547897 0.6527004 -0.13207227 0.52952754 0.11818161 0.04938578 0.008342942 0.20448054 0.060222693 -0.50842446 0.544615 0.14150904 -0.13292119 -0.20761862 -0.1921892 -0.17127796 0.048489682 0.112421565 -0.15969197 0.0051166234 0.26894635 -0.8187591 -0.41549626 -0.18444185 -0.21840943 0.36409417 -0.25434202 -0.5070871 0.43253493 0.1970592 -0.6225855 0.34136578 -0.11046577 -0.31988335 0.09697502 -0.19630477 -0.24539831 0.48299024 -0.33611763 0.019137835 0.07172391 0.067765765 -0.28396088 -0.70714045 -0.14445518 -0.31994107 0.13796797 -0.85701275 0.010227925 0.09763215 -0.7230071 -0.03878056 0.0021091185 -0.41649655 -0.091177404 0.116215445 0.18209505 0.078383826 -0.072134875 0.23499183 0.26049164 0.238261 -0.3142938 0.08144294 0.32865778 -0.4952435 -0.31623948 -0.11712033 -0.2336974 0.31171557 -0.24639533 0.23578507 -0.46828118 -0.43218008 -0.16647384 -0.6081344 -0.049733702 -0.100652754 -0.017631609 -0.11630997 -0.16704637 -0.24062544 0.26722357 0.16517046 -0.055999704 0.017229503 0.06007411 0.049233437 0.12907699 0.19371998 0.45714268 0.21303824 -0.26301605 0.117916286 0.35398835 0.018288957 0.0727674 0.042349495 0.26405597 -0.07482161 0.21340771 -0.40783766 0.6687922
MSR1 -0.070874155 0.13780831 0.14413287 -0.058899656 0.14494501 -0.024875205 -0.09810239 -0.29251397 -0.07755266 0.12513366 0.5128892 -0.57161963 0.27554023 -0.5981397 -0.30424216 0.6935796 -0.4055786 0.05721808 0.030658055 0.80250347 0.036738507 0.6054474 -0.65997976 -0.5342841 -0.14843294 -0.16633154 0.28867695 0.17831154 0.45943367 -0.07932404 0.41854382 0.10614397 -0.32343513 0.060785577 -0.41317284 -0.08912614 0.044464283 -0.04936757 -0.22993052 -0.34742025 -0.46504256 0.27861786 -0.21253885 0.1878042 0.067328736 0.08827791 -0.72736263 -0.5662488 -0.13770631 0.07232623 0.22908962 -0.07636047 -0.6408588 0.2700995 -0.18309307 -0.35493687 0.3345036 0.14915021 -0.41982606 -0.058096383 -0.37903842 -0.106253296 0.27332944 -0.47737595 -0.047516514 -0.107028596 -0.25008866 -0.12962437 -0.51672167 0.17973763 -0.15078023 -0.07478289 -0.58003867 -0.12706366 -0.020097284 -0.29630154 -0.17794609 -0.48409736 -0.35216624 -0.20700161 -0.09183248 0.09554373 0.5191846 0.10872506 0.06649628 0.51183647 0.33015636 -0.60178095 -0.044013616 0.5590067 -0.35965663 -0.03528086 0.1387639 -0.52300835 0.1135446 -0.124828875 0.18307577 -0.37610146 -0.5370413 -0.42665792 -0.4813343 0.17595568 -0.15284261 -0.103475764 -0.32790974 -0.37380442 -0.21720035 0.12863079 0.35497546 -0.1575406 0.26460075 -0.34438112 0.4311904 0.33362252 -0.10979453 0.39304027 0.12565443 -0.19087555 0.49392653 0.3176533 -0.1555243 0.10346041 -0.27190533 0.15929428 -0.0446657 -0.047519993 -0.16201127 0.5302482
EPHB2 0.12695351 0.25746182 -0.03153595 -0.084535845 0.17812051 -0.07090201 -0.08867214 -0.21143813 -0.101376206 0.11630004 0.46602336 -0.4541247 0.21034203 -0.51439387 -0.24751998 0.75748104 -0.2923527 -0.06648495 0.09736447 0.7916249 -0.10843577 0.5784087 -0.64271474 -0.6517798 -0.24267827 -0.18266802 0.20212616 0.2087265 0.29121736 -0.067488365 0.39525142 0.09569938 -0.3045066 0.21412456 -0.33480516 -0.15893488 0.071583115 0.0183535 -0.21113001 -0.2651739 -0.4548086 0.18692134 -0.11062973 0.17479382 0.0782431 0.2181132 -0.6722196 -0.42084774 -0.13474172 0.109101 0.28534853 -0.13346048 -0.6542617 0.24874772 -0.16021572 -0.4448212 0.26150522 0.19264098 -0.4232379 -0.016437102 -0.46863294 -0.335925 0.2746881 -0.4116307 -0.03844582 -0.080115005 -0.23504108 -0.061736383 -0.47489953 0.17916647 -0.046367623 -0.25674736 -0.52316064 -0.15690887 -0.014710625 -0.22087735 -0.15191333 -0.4967494 -0.566269 -0.3782081 -0.074924454 0.16414073 0.4504944 0.009183886 0.0331 0.5491902 0.34704587 -0.6070699 0.010463342 0.4333647 -0.36788255 -0.033797763 0.12153552 -0.5175117 0.08056223 -0.38484833 0.043989934 -0.44911975 -0.45855242 -0.3288115 -0.5061403 0.17334633 -0.06463986 -0.13884899 -0.3082494 -0.2764535 -0.021160148 0.13171619 0.49324524 -0.14994463 0.105267175 -0.34697005 0.61211383 0.37134084 -0.16765662 0.34597173 0.08001914 -0.29487836 0.4530836 0.40858293 -0.11623968 0.092214935 -0.24450253 0.07758122 -0.18205611 0.0791978 -0.11271408 0.36552227
KLF6 0.0022552195 0.21182974 0.10626808 -0.02584051 0.20558612 -0.12048217 -0.13936286 -0.16769095 0.016181167 0.18695854 0.5468734 -0.6281032 0.20230104 -0.4369532 -0.37559655 0.7203875 -0.2656954 0.11336912 -0.021790646 0.79042125 -0.023293661 0.53910214 -0.6955112 -0.49435955 -0.19239289 -0.16389984 0.25333568 0.11994936 0.34693578 0.026514057 0.3387645 0.13379706 -0.33860004 0.18016067 -0.4327034 -0.12824193 0.099689566 -0.07091883 -0.2946997 -0.25679937 -0.33129507 0.35504097 -0.13484384 0.03288076 -0.0090335505 0.1190628 -0.78994226 -0.53036505 -0.08533993 0.09545804 0.19193375 -0.13109523 -0.5760131 0.2200637 -0.21016905 -0.47282666 0.3119897 0.19217008 -0.4421827 0.009498423 -0.36662063 -0.1299316 0.24524777 -0.423926 -0.04694136 -0.025579369 -0.3019915 -0.1450361 -0.4739318 0.11638257 -0.18032493 -0.15658084 -0.604224 -0.115756825 0.005313733 -0.20098932 -0.08227766 -0.55499345 -0.49228778 -0.25603023 -0.11217135 0.013660407 0.49742255 0.051856242 0.074904844 0.5427683 0.41282624 -0.5715901 0.08697381 0.42190248 -0.35587767 -0.1379938 0.10729621 -0.4429027 0.08608647 -0.19155335 0.058513787 -0.32935798 -0.47050098 -0.44528848 -0.40515155 0.29679504 -0.076355115 -0.07186251 -0.40073827 -0.2959518 -0.07153503 0.17338948 0.3911888 -0.11498325 0.20345482 -0.2721939 0.4222736 0.37251118 -0.20651788 0.41340104 0.09997672 -0.15614577 0.3798846 0.38457316 -0.15418458 0.048140645 -0.15830347 0.22677882 -0.08540529 0.023097012 -0.10122941 0.51687425
MAD1L1 0.21874942 0.29345647 0.17358634 -0.18729348 0.09192083 -0.3274229 0.030419014 -0.41016743 -0.044329647 -0.07616737 0.11415779 0.059404615 0.3473006 -0.5801623 -0.42234862 1.0289216 -0.43304607 -0.010873319 -0.34734765 0.65322685 -0.30486503 0.44490203 -0.45762092 -0.34435475 0.09574885 -0.13076234 -0.20553367 -0.19071427 0.3638887 -0.042389233 0.49753824 0.25055724 0.35102817 0.18771322 0.0837468 0.13737878 -0.064838216 -0.16647245 0.026580445 0.040249746 -0.13636906 0.0026400564 -0.21901108 -0.0028911026 0.33431852 0.24151528 -0.9275349 -0.42186138 0.1620093 0.14997889 0.33169842 0.11349596 -0.7477231 0.39730147 -0.13488615 -0.33782184 0.39197057 0.33427846 -0.19075304 0.047924638 -0.35775065 -0.06939413 0.5783489 -0.60282207 0.049270786 -0.096645124 -0.2824867 -0.061684437 -0.20354496 -0.33758384 -0.08100219 -0.23432595 -0.30033344 -0.13127325 0.13953377 0.2418968 0.018339181 -0.045479666 -0.5027049 -0.26587433 -0.48978063 0.062064834 0.28274745 -0.03360264 0.2800016 0.26266605 0.26160014 -0.6075413 -0.021746587 0.3128709 -0.3490474 -0.026691614 -0.019090524 -0.34659377 0.30117524 -0.10426522 0.025893161 -0.026598543 -0.3987576 -0.18104069 -0.31732824 0.18730901 -0.16032904 -0.045801993 -0.5926729 -0.14349462 0.17607495 0.331376 0.3296358 -0.28645852 0.2770154 -0.37126935 0.28617802 -0.024746684 -0.24875098 0.23752485 0.25901124 -0.21981631 0.41362858 0.2873535 -0.32881045 0.13441788 -0.23513184 -0.25695172 0.014201017 -0.1251259 -0.27209166 0.17540362
ATBF1 -0.05938724 0.19423294 -0.01594212 0.035676356 0.14515239 0.06691895 -0.058441363 -0.27697337 -0.21045603 0.16221972 0.4401674 -0.41436177 0.21455707 -0.54364145 -0.32999453 0.80361915 -0.39218286 0.08937561 0.17812812 0.7742563 0.094767824 0.6288351 -0.72188365 -0.5956478 -0.10624914 -0.205401 0.24422523 0.13204968 0.33044797 -0.11285381 0.4374045 0.054398093 -0.36160508 0.2628831 -0.3862843 -0.12636785 0.052420378 0.053235244 -0.24378619 -0.32432565 -0.33960095 0.4577451 -0.11502863 0.123663105 0.06270726 0.1923362 -0.63886034 -0.3943089 -0.16818425 0.12955454 0.168033 -0.1042152 -0.61269176 0.20984885 -0.22607838 -0.30988628 0.39061597 0.022778105 -0.39070225 0.025759697 -0.31846786 -0.2197933 0.2580448 -0.4357104 0.007670128 -0.098813795 -0.25281534 -0.27254564 -0.53357816 0.108509175 -0.115219735 -0.2121408 -0.4901864 -0.07920661 -0.112231135 -0.2138881 -0.11844789 -0.58570164 -0.37688684 -0.26005995 -0.023214558 0.08448489 0.38544273 0.05438737 0.1446817 0.46945086 0.42077914 -0.7381052 0.18673101 0.48345122 -0.2845131 -0.0021155654 0.17623639 -0.48491195 0.05647281 -0.33858088 0.07704159 -0.41395262 -0.5322554 -0.41493538 -0.52874184 0.2237277 -0.20072763 -0.1210247 -0.4111104 -0.33167878 -0.18023913 0.1648018 0.441413 -0.19687867 0.26546094 -0.32070348 0.5714028 0.3324289 -0.25571367 0.43492213 0.09999981 -0.28375456 0.43696746 0.42340925 -0.19272478 0.20172864 -0.16485731 0.2085397 -0.10343354 0.040354133 -0.15739705 0.38125736
ELAC2 0.028275797 0.12944238 0.11877957 -0.060220104 0.14045012 -5.5592336e-05 -0.027256826 -0.29071817 -0.028448423 0.1464145 0.6074035 -0.49849015 0.26266158 -0.4929636 -0.34740135 0.7747227 -0.3619374 0.01541248 0.11020387 0.71037793 -0.088931896 0.5008004 -0.6576093 -0.52474403 -0.18669999 -0.22228228 0.2247602 0.0866516 0.4204709 -0.08578411 0.44057688 0.13436332 -0.4787096 0.21789078 -0.3304086 -0.09562698 0.055785272 -0.03185018 -0.23924147 -0.24751133 -0.4277894 0.3225865 -0.12744823 0.14219667 0.01307194 0.30344042 -0.66226244 -0.37363777 0.042953648 0.1499693 0.2530925 -0.11308506 -0.55265856 0.36557275 -0.36184424 -0.38165405 0.29962337 0.14003207 -0.47383422 0.030499768 -0.38129717 -0.27857766 0.27137586 -0.47992674 -0.17135447 0.042348206 -0.36983103 -0.20293422 -0.5631886 0.09680017 -0.122400805 -0.3026669 -0.5820493 -0.14499447 0.047463384 -0.2880657 -0.041892078 -0.4403568 -0.48409835 -0.33088142 -0.11205119 0.040754955 0.45407492 0.17409523 0.110348076 0.5942038 0.4094264 -0.65547574 0.04446893 0.5059741 -0.33531573 0.048133254 0.26527935 -0.512902 0.0813128 -0.18361548 0.012998455 -0.30285397 -0.6161249 -0.45661753 -0.5333122 0.21580155 -0.20808926 0.012433922 -0.28703684 -0.16323936 -0.18860897 0.12720856 0.44140074 -0.17353244 0.14350164 -0.3214215 0.60468465 0.21167022 -0.25527894 0.18792674 -0.0046247104 -0.25088483 0.39296597 0.36640048 -0.2487597 0.111588635 -0.1841517 0.08189839 -0.08108374 0.13732323 -0.13815038 0.5132232
MXI1 0.02794968 0.20750986 0.06861454 0.022972487 0.2152875 -0.13379788 -0.07992311 -0.25185353 -0.13515627 0.18983857 0.57652247 -0.4613398 0.3093985 -0.49354663 -0.23367268 0.78999037 -0.28464252 0.169701 -0.04007039 0.8239382 -0.061503936 0.395534 -0.67136604 -0.58768415 -0.30452573 -0.27138808 0.29390946 0.15239103 0.37429994 -0.109906614 0.39326254 0.06622691 -0.3186725 0.25857538 -0.39478153 -7.607607e-05 0.08604534 0.003663958 -0.24039593 -0.17679659 -0.4535109 0.31214967 -0.18064591 0.082517 0.18959516 0.24235487 -0.8334164 -0.5252328 -0.11639283 0.24796821 0.1952158 -0.11238974 -0.61985207 0.12888719 -0.3032161 -0.4773466 0.31232992 0.046105415 -0.39253223 0.017969519 -0.28027737 -0.22101335 0.18442416 -0.62642354 -0.13456458 -0.13652638 -0.3114836 -0.19857007 -0.48609596 0.1696652 -0.08315413 -0.123125546 -0.57175773 -0.1777843 0.035263613 -0.37530226 -0.113694586 -0.4876587 -0.3951399 -0.24699047 -0.07247973 0.12925205 0.50392026 0.13103035 0.068518475 0.5632921 0.27472445 -0.73974544 0.11563008 0.53190583 -0.36975428 -0.04340673 0.15571102 -0.48454517 -0.014079763 -0.25822163 0.03559355 -0.22377 -0.5060077 -0.39558783 -0.5948368 0.14801803 -0.094592355 -0.057746384 -0.3390085 -0.37679815 -0.06593689 0.17247185 0.40507656 -0.24065472 0.16463716 -0.3004113 0.5559677 0.28694987 -0.24192072 0.3549667 0.07128407 -0.28950137 0.5571453 0.3777422 -0.17520438 0.14578792 -0.1882242 0.21123952 -0.036607914 0.007468662 -0.16587032 0.45725763
Abciximab 0.58776444 -0.49164954 0.24241102 0.37763757 0.822615 -0.11584402 0.36687735 -0.07951053 0.45576346 0.09261361 -0.18576056 -0.4119158 0.4214597 -0.6233965 0.42192775 0.13854623 -0.3793557 0.019787509 -0.0013787864 0.38068584 0.5057098 0.29653612 -0.38740402 0.014188351 -0.21352032 -0.13288717 -0.06742673 0.12535292 -0.085833356 -0.42999136 0.08491412 -0.14974147 0.25135553 0.13012862 0.011925803 -0.2271886 0.12049467 -0.06071181 -0.033637445 0.37573987 0.39698827 0.16658808 -0.18953061 -0.10072934 0.2408416 -0.07786175 0.6523504 0.09979427 0.13573755 0.31807047 0.025419245 -0.3153761 -0.08535887 0.2566818 -0.039102536 -0.30049732 -0.39115536 -0.109993525 0.084729254 0.08508571 -0.11523572 0.3436973 0.20992018 0.22564578 0.63307565 -0.18668899 -0.26758283 -0.43010658 0.14616606 -0.093713015 -0.504641 -0.631899 -0.1468788 0.057322193 0.10651521 -0.5215925 -0.1088699 -0.15769123 -0.34060448 0.33677667 -0.4867237 -0.10881582 0.47376293 0.40573746 0.18452647 0.5653575 0.15857242 -0.3990877 0.64191186 0.24659619 -0.13414684 0.022414498 -0.1712011 -0.08377316 -0.3233979 0.04443547 -0.34114167 -0.14337574 -0.2820763 0.39008647 -0.22854893 0.27276915 0.2338438 -0.030525927 -0.107385725 0.11493754 0.09645192 0.10272657 0.29541934 -0.33907568 -0.16879033 -0.21598695 0.31005841 0.23558907 0.2985481 -0.40961543 0.025116116 -0.20213357 -0.16402844 0.54305416 -0.19731477 -0.57591563 0.13774407 0.5005133 -0.5277476 -0.24107158 -0.43853065 -0.11457666
F7 0.93185014 -0.19358212 0.2504836 0.17775184 0.6734488 -0.027641917 0.12941575 0.16090319 0.01778359 -0.022856958 -0.072197504 -0.42087525 0.3625258 -0.71975595 0.52682364 0.20067085 -0.30760342 0.047109272 -0.22365738 0.23172903 0.525564 -0.11411449 -0.31623423 0.24578474 -0.28103483 0.15438862 0.049781427 -0.10888146 -0.3917653 -0.34589386 0.043937746 -0.14361621 0.2992796 0.27467886 -0.22656088 -0.3353339 0.19156761 0.10414326 0.027200632 0.21190135 0.7855246 0.21217985 -0.0564132 -0.25046363 0.6637112 0.27468702 0.46109483 -0.10525659 0.40994298 0.583451 0.20263024 -0.09087774 0.10875232 -0.012761684 -0.30261126 -0.25552228 -0.3263836 0.13530701 0.03632335 0.19151822 0.27628264 0.1860955 0.39779037 0.19968045 0.56901944 -0.067186564 -0.2911129 -0.39484707 0.2942715 -0.33635375 -0.4043685 -0.5591768 -0.24601606 0.012314578 -0.2363943 -0.6257397 -0.20510626 0.13946305 -0.4426741 0.41145378 -0.33204833 0.111536294 0.6973555 0.44839218 0.22291036 0.57229465 0.1996807 -0.1203743 0.43872777 -0.06694228 -0.09646434 0.018268283 -0.033362973 0.1349025 -0.19233648 -0.013738605 -0.13232839 0.030486409 -0.112705484 0.28698853 -0.081522316 0.076902494 -0.020948704 -0.22344097 -0.44655907 0.27644673 0.12424342 0.21396877 0.052067257 -0.48181564 -0.2359548 -0.4037934 -0.24795195 0.1466547 0.050987896 -0.09388053 0.097268865 -0.19275972 0.061879344 0.5794991 -0.23085985 -0.32523742 0.21970177 0.6384854 -0.261264 -0.5248592 -0.37410897 -0.18787204
APOE 0.2482248 -1.0083077 0.19254562 0.3344434 0.76177275 -0.15541227 0.2775094 0.22352602 0.14446074 -0.03305844 -0.1729131 -0.13701499 0.24799262 -0.68538296 -0.057835523 0.12625659 -0.6211107 0.031566076 -0.119175114 0.30073243 0.58054703 0.14427829 -0.14499074 0.26387444 -0.09328614 -0.09273051 0.04596021 0.07982589 0.034533277 -0.6743378 0.081838794 -0.052710038 0.36923364 -0.2605616 0.35092485 -0.3233415 -0.10383119 0.0058987457 -0.118248716 0.3320255 0.16674562 0.43395078 -0.056629293 -0.27265218 0.424896 0.24831319 0.13728756 0.35413083 0.52733046 0.18418366 0.09448401 -0.31038642 0.257887 0.13493165 -0.025414113 -0.053438343 -0.33244827 -0.25503898 0.29598516 0.12650855 0.119018316 0.06756137 0.31444445 0.41809398 0.57142234 0.1370706 -0.20380855 -0.29966965 -0.021321522 0.005931429 -0.5794284 -0.5380797 -0.20637035 0.060689773 0.3073811 -0.23356722 -0.16378964 -0.32849348 -0.65618795 0.4274898 -0.20150489 0.01803146 0.26002368 0.5081115 -0.17189863 0.52589816 0.18609218 -0.33848438 0.14100322 0.061990418 -0.33979377 0.33229956 0.09405913 -0.055525474 0.013926139 -0.024898037 0.023952056 -0.35097486 -0.36381078 0.21654166 -0.15887295 0.6360822 0.22966395 -0.015518948 0.12208887 0.059270076 -0.12507507 0.2865556 0.41803405 -0.11543056 0.05191736 -0.4435225 0.21768273 -0.315411 0.06772796 -0.488897 0.26542044 -0.008754444 -0.14865275 -0.023028072 0.008913955 -0.7028589 0.16984926 0.6968516 -0.47588593 -0.19731505 -0.16167533 -0.27682438
ACE 0.19641624 -0.6574264 -0.09547126 0.50562614 0.41677624 0.074227214 0.21982005 -0.19634442 0.5425051 -0.035292696 0.03693057 -0.3252452 0.0447656 -0.24012722 0.26717454 -0.36524606 -0.5973299 -0.06539873 0.022871323 0.32247987 0.6325946 0.3545647 -0.13772605 0.19527084 -0.43986097 -0.34496307 -0.12713373 -0.14483556 -0.15080719 -0.434622 -0.11629375 -0.0010690145 0.13827202 0.07725302 0.24107476 0.0012828584 -0.26005596 -0.16076139 -0.09714781 0.30839556 0.14932238 0.22487526 -0.16070397 -0.115206055 0.3184166 -0.09440063 0.55268216 0.4583642 0.009115929 0.44259775 0.36418864 -0.36740407 0.1328667 0.17153086 0.2956976 0.15183614 -0.41527498 -0.11002938 0.02761556 0.0031382153 -0.0486863 -0.13391525 0.3542257 0.1436436 0.621701 -0.2414469 -0.24112992 -0.07582021 -0.23217288 -0.42376474 -0.08903589 -0.5548632 -0.13549842 0.096018285 0.22718632 -0.048591774 -0.081270486 -0.30210733 -0.32350197 0.33473212 -0.11563859 0.037063435 0.4939176 0.07712741 -0.08114035 0.23367037 0.03734963 -0.3877551 0.47476184 0.19297445 -0.42611775 0.2824632 -0.36631462 -0.042442758 -0.16086128 -0.07213149 -0.020524254 -0.28737766 -0.4570788 0.1415194 -0.37670305 0.6510222 0.108764485 -0.27307165 -0.13973361 -0.08048277 -0.31176868 0.3439443 0.06757379 -0.23837699 -0.006896524 -0.44251314 0.17952965 0.1181833 0.31265366 -0.31799063 0.15015806 0.14424966 -0.44214442 0.2923464 -0.10381401 -0.6239875 0.035756372 0.6239809 -0.81302667 -0.6805984 -0.036020704 -0.31361866
ALOX5AP 0.6477748 -0.6888859 0.32553488 0.34111688 0.56011826 -0.07710282 0.56036204 0.25793073 0.3342075 -0.12842388 -0.11779934 -0.28031844 0.19282205 -0.7550937 0.4314722 -0.34151787 -0.2999184 -0.3149369 -0.1215863 0.5089472 0.5854879 0.13345602 -0.38293114 0.23084329 -0.4573359 0.11861465 -0.12125075 -0.010099587 0.19183561 -0.26823983 -0.06724186 -0.05087982 0.3716103 0.31305635 -0.09853397 -0.13163933 0.24804139 -0.1060081 0.023509631 0.22529334 0.5782364 0.29670006 -0.30759698 -0.1499083 0.5611938 0.07460516 0.52485883 0.15832394 0.25392917 0.2305462 0.24069415 -0.3831809 -0.05683561 -0.122348905 -0.06326351 -0.4516097 -0.095849946 -0.19640106 0.21162568 -0.061354697 0.06559765 0.37364954 0.20943412 0.28164452 0.6236707 0.055535473 -0.4430921 -0.3152734 -0.04258676 -0.06586191 -0.4749749 0.022281233 -0.32374042 0.19278102 0.16051088 -0.44780147 -0.08083775 -0.04632383 -0.36359477 0.5418564 -0.40292248 -0.015941316 0.515778 0.23282282 0.31844497 0.59580255 -0.01863445 -0.46396562 0.68030125 -0.005571086 0.14101893 0.08508062 0.20683096 0.18975613 -0.19651295 0.26372677 -0.051578585 -0.33494025 -0.0061078435 -0.14745256 0.12771544 0.24174607 -0.28284663 -0.06618827 -0.14395115 -0.015977599 -0.003106325 0.14557426 0.6270173 -0.61305404 -0.097150385 -0.36446828 0.10218778 0.59752876 0.34562424 -0.17345594 0.0044158017 -0.56124353 -0.073719576 0.20610306 -0.27078164 -0.4579598 0.18197022 0.39922127 -0.3871875 -0.4278809 -0.31589818 0.12689218
LGALS2 0.725786 -0.6139204 0.34255913 0.33826342 0.73604757 -0.117071755 0.25536612 0.1967831 -0.043555807 -0.15812902 -0.13920844 -0.15349083 0.21544026 -0.4152758 0.7861901 0.014950612 -0.57440925 -0.04409494 -0.09224554 0.44323897 0.73566157 0.30626786 -0.430993 0.29565036 -0.18568228 -0.12666157 0.06546381 0.03226723 -0.19036254 -0.32295874 0.11467039 -0.073636584 0.27299666 0.23431292 0.18280944 -0.018211043 0.13237397 0.008578899 0.08091122 0.17105097 0.4005164 0.3102287 -0.03864981 -0.32276025 0.42377046 0.14328536 0.36779588 0.1018138 0.22114858 0.34773257 0.10109289 -0.29590222 0.028529514 -0.10736281 -0.20050386 -0.3993245 -0.30830762 -0.13099074 0.19530523 -0.08102527 0.024125092 0.15429422 0.18003842 0.2115971 0.5269214 -0.011725147 -0.3131677 -0.47968188 0.16025856 -0.021194082 -0.43685663 -0.41727448 -0.09647263 0.17202885 -0.026249949 -0.27411944 -0.21769759 -0.08123655 -0.50374573 0.6534858 -0.5444868 0.029768921 0.4183142 0.20247771 0.26009515 0.57592064 0.02934888 -0.5212991 0.49687225 -0.007294256 -0.035376836 0.054308273 -0.00025843384 0.2495665 0.09558583 0.038946062 0.07424409 -0.1442543 -0.2017405 -0.026420915 -0.03690238 0.25238842 0.032284908 -0.09680539 -0.22178029 0.09830148 0.08367086 0.23992829 0.4640217 -0.46205404 -0.2946292 -0.3154626 -0.020224594 0.27390108 0.119360015 -0.30428755 0.0037688315 -0.30299354 -0.18863684 0.22175814 -0.2834736 -0.4725255 -0.015689103 0.45036063 -0.48389137 -0.467022 -0.33431792 -0.028147096
LTA 0.641537 -0.7590104 0.3507729 0.17799804 0.7412373 -0.060477313 0.3364238 0.17826621 -0.0620382 -0.10449808 -0.1816051 -0.15401663 0.15182875 -0.5246115 0.5927112 -0.027686357 -0.5506018 -0.03306623 -0.08228258 0.3979496 0.64759713 0.25529936 -0.39504763 0.28122702 -0.37189683 -0.021370543 -0.038393524 -0.031539626 -0.083169006 -0.4304003 0.19436792 -0.10678363 0.40540317 0.17499329 0.16035552 -0.0834599 0.0769414 0.05926892 -0.048171308 0.09157819 0.6485558 0.4253045 -0.07588623 -0.25771815 0.4636002 0.07211822 0.41551432 0.19729891 0.27907977 0.31257215 0.2815237 -0.18162693 0.0062748296 0.07072356 -0.22326572 -0.2867452 -0.36109006 -0.068219624 0.2779183 0.118911706 -0.029915363 0.359676 0.24500531 0.18357506 0.63308793 0.14720832 -0.28770897 -0.35117513 0.013536705 -0.08237025 -0.37457025 -0.4948231 -0.027558679 0.26908857 -0.028792161 -0.36396936 -0.31725433 0.0073636384 -0.54421735 0.6822914 -0.38481742 0.020043986 0.43270606 0.25684306 0.29649544 0.53279525 0.002012741 -0.26790845 0.531971 -0.010533385 -0.30211067 0.11626544 -0.035180453 0.13379404 0.047672108 -0.0038564503 0.047478955 -0.27690995 -0.15465301 0.12389484 -0.0102431225 0.18539031 -0.059585024 -0.11196224 -0.1830675 0.25308126 0.20215818 0.29726416 0.537534 -0.37241507 -0.23202957 -0.29603732 -0.11840946 0.3519091 0.03611325 -0.20133595 0.03198576 -0.40191317 -0.06562702 0.1532769 -0.26740557 -0.45846552 0.081628844 0.54478467 -0.44940466 -0.5634363 -0.24924879 -0.14657639
OLR1 0.64794606 -0.66399133 0.32636285 0.3129353 0.6531608 0.03216152 0.2906246 0.095258266 -0.0059910533 -0.17979838 -0.019555276 -0.05269921 0.21084748 -0.3463469 0.58989084 0.0034838286 -0.61294144 -0.1216374 0.015045428 0.50470597 0.684048 0.29688278 -0.35914847 0.37655175 -0.24713063 -0.14224729 -0.091059074 -0.05192259 -0.18807746 -0.38547122 -0.07973372 -0.101150356 0.38387647 0.20488249 0.12133941 -0.23398918 0.15793394 0.037224725 0.023799501 0.18218629 0.49255124 0.40752003 -0.17971301 -0.41132626 0.5424735 0.017094942 0.4600662 0.061256062 0.12467879 0.39038765 0.1795103 -0.12731609 0.022969501 0.016677767 -0.18064044 -0.40498415 -0.42804563 -0.18339577 0.3099888 0.01119602 -0.021619733 0.37484196 0.23912904 0.11778694 0.56617266 0.06623563 -0.28455085 -0.23992443 0.1690696 -0.26228583 -0.4747078 -0.35426804 -0.16169305 0.2397822 -0.013283405 -0.23823626 -0.20105721 -0.11214814 -0.56230074 0.61633307 -0.43387932 0.05842451 0.4135621 0.2871296 0.31020343 0.6642382 0.0050864704 -0.3948783 0.5714823 -0.01095403 -0.21703672 0.09959276 0.010350521 0.15223986 0.1516789 0.060475666 0.06296784 -0.30655476 -0.19999608 0.13284291 -0.103493616 0.15511362 -0.011880411 -0.012762018 -0.16119446 0.1833297 0.15739934 0.25604355 0.43215942 -0.45224705 -0.30271238 -0.41888958 -0.048999943 0.3325237 0.05786464 -0.28107512 0.11863336 -0.28762943 -0.1354138 0.099222735 -0.24591313 -0.39829665 -0.059341397 0.5265349 -0.47987014 -0.5699051 -0.21932644 -0.23682062
THBD 0.57902133 -0.69605935 0.28609052 0.25620833 0.603681 0.024681296 0.40424308 0.19565965 0.068915665 -0.02205483 -0.16375357 -0.117308035 0.25693133 -0.35121307 0.5044731 -0.05032862 -0.5683429 -0.12996413 -0.03966836 0.5399233 0.7092942 0.2584396 -0.4423431 0.32770348 -0.3265166 -0.10760565 0.014136621 0.028693423 0.079803236 -0.35568643 0.08649754 -0.05414256 0.4017203 0.21784008 0.1674368 -0.07325864 0.14983298 0.04166534 -0.032102376 0.23988344 0.5688923 0.39731413 -0.097896755 -0.3486099 0.40655088 0.22146863 0.539755 0.13699941 0.23164216 0.34973195 0.28392422 -0.22295856 -0.07689271 -0.09579529 -0.20833465 -0.36552423 -0.36914143 -0.10923906 0.27592194 -0.14817578 -0.063881114 0.29887426 0.036418367 0.31376362 0.36287123 0.0383321 -0.20253938 -0.4201588 0.11266762 -0.1289126 -0.4676173 -0.40207762 -0.20755114 0.26910523 -0.021003662 -0.23728207 -0.3856302 -0.030691728 -0.5734269 0.57035625 -0.55071515 0.032458056 0.477734 0.2654886 0.31333122 0.61988443 0.028339682 -0.26525372 0.5870683 0.035356276 -0.060316563 0.045338374 -0.005867948 0.12982874 0.052824523 0.025048185 0.11468558 -0.24234928 -0.18350345 0.046743248 -0.0647572 0.20318635 -0.033785857 -0.10611219 -0.22885242 0.16170244 0.23729332 0.28028494 0.6143591 -0.451303 -0.2731413 -0.346931 0.10830006 0.35132602 0.12121987 -0.3578308 -0.034215607 -0.3636967 -0.1444936 0.21188636 -0.26454967 -0.50229716 -0.06507939 0.59267837 -0.51918346 -0.48865524 -0.34240252 -0.16152582
GCLM 0.62906635 -0.6577796 0.27144238 0.38467702 0.7910476 0.06723925 0.2575558 0.19500796 -0.024004964 -0.17131965 -0.13979429 -0.15637666 0.21195114 -0.25442716 0.59287536 -0.07561186 -0.5571799 -0.08479752 -0.105900265 0.47886434 0.8091904 0.21857683 -0.429358 0.25956294 -0.37810174 -0.05642448 0.022906164 0.033219717 -0.11211827 -0.33202314 0.044568386 -0.07578185 0.42461348 0.16066834 0.20971929 -0.17280667 0.14413127 0.021714097 0.010885459 0.1966042 0.53971744 0.3351985 -0.029560316 -0.2742025 0.37077996 0.077502325 0.48572904 0.10777907 0.1574109 0.3561266 0.24194647 -0.14809164 0.05574554 0.025481358 -0.27865168 -0.40507227 -0.2933137 -0.01996067 0.20908862 0.010887588 -0.020111188 0.31435487 0.1301254 0.25920177 0.49457803 -0.045573007 -0.33187824 -0.39553052 0.048384257 -0.08344274 -0.43412772 -0.3746737 -0.1711926 0.29580587 -0.035277635 -0.260113 -0.3554333 -0.09861164 -0.4515743 0.6676537 -0.58550143 0.085436694 0.5291133 0.27518892 0.33967647 0.6552672 0.07449025 -0.37554607 0.5439887 -0.0011907632 -0.16564606 0.05228542 0.07646677 0.17884503 0.01813667 0.07200604 -0.054473773 -0.22924426 -0.08898036 0.031084636 -0.12877469 0.15221077 0.07603726 -0.13771014 -0.30700836 0.18481989 0.069814526 0.28392482 0.4281114 -0.47235486 -0.28947538 -0.2800351 0.019060673 0.3024208 0.1230908 -0.27324325 0.15162954 -0.3734522 -0.091996275 0.21200202 -0.35339895 -0.46733376 -0.035904624 0.52894866 -0.39606622 -0.5435295 -0.2848303 -0.11163138
TNFSF4 0.6975431 -0.54774827 0.19861217 0.3520012 0.707328 -0.005453902 0.26529408 0.111315295 0.06613852 -0.102098174 -0.16608171 -0.21533059 0.2178575 -0.39682207 0.6565859 -0.051428203 -0.51820165 -0.07923746 -0.05535586 0.55213976 0.7387549 0.2549981 -0.42818552 0.22071733 -0.2778769 -0.07494316 -0.18048507 -0.09176213 -0.097215325 -0.48720843 0.13835503 -0.053247213 0.31410772 0.16101693 0.14651625 -0.06582876 0.13724726 -0.008925995 -0.09418473 0.22708482 0.5720859 0.24167483 -0.108605206 -0.31254563 0.4924119 0.012589747 0.5086416 0.16586912 0.19525316 0.24671042 0.17661616 -0.18631727 -0.04088872 0.066191785 -0.22847946 -0.40911436 -0.36859855 -0.036804985 0.24691416 0.06522412 -0.11029926 0.31987673 0.17574844 0.1919815 0.5432709 0.061188854 -0.33978537 -0.36945695 0.10812997 -0.19442253 -0.40848646 -0.43479386 -0.07494786 0.25018144 -0.01480841 -0.27775976 -0.27595878 -0.004143609 -0.4948632 0.7244845 -0.43706146 0.13279213 0.47510108 0.18866597 0.21974504 0.6211308 -0.13197587 -0.32663873 0.5825526 0.006844661 -0.17511314 0.0845612 -0.023689937 0.11756003 0.09082106 0.051151074 0.011213816 -0.19091381 -0.10638189 0.053399067 0.005381616 0.13458364 -0.11760065 -0.08439836 -0.34187418 0.23581119 0.08003053 0.344748 0.44412202 -0.42028457 -0.37377277 -0.41571873 -0.024707286 0.35559788 0.12115625 -0.16248864 0.04936062 -0.38684922 -0.120287396 0.14179496 -0.35725516 -0.45534348 -0.03956832 0.5287668 -0.3274945 -0.5379003 -0.28056747 -0.09973353
Acamprosate -0.21355978 -0.059853334 0.4744126 0.20107046 0.87852716 -0.01537411 0.47716892 0.12353324 0.11064921 0.7573209 0.43443602 -0.15610008 -0.09767418 -0.663664 -0.053289965 0.5144511 -0.4439043 0.3375243 -0.5613397 0.48731047 0.20753801 -0.1270458 -0.15622343 0.13201949 -0.5761697 0.31390563 -0.3452535 0.25514922 0.00839107 0.14593653 -0.49003354 0.46725243 0.28241682 0.06684382 0.117801666 -0.24145806 0.07949906 0.41426504 -0.060117386 0.01569469 0.0015780316 0.91360277 -0.044618312 0.2563446 0.6459988 -0.089670554 0.13592996 -0.1658202 -0.48834398 0.095731854 0.18808368 -0.8480414 -0.1900673 0.58909434 -0.3743412 0.38998127 -0.293061 -0.36535794 -0.32298213 0.18866497 0.18009333 0.159276 0.11518678 -0.3059142 0.106341176 0.040669758 0.15876126 0.5666478 -0.4581903 0.048150886 0.3380731 -0.19456306 -0.51578635 -0.38547653 -0.19490701 -0.2330392 -0.28237286 -0.14826603 -0.7369913 0.15970182 0.47185484 -0.5907573 -0.0036815947 0.5139368 0.31532082 0.47945997 -0.07261323 -0.5321159 0.31752154 0.10705823 -0.7769625 -0.28243208 -0.012728738 -0.51042587 0.35355988 0.44069746 0.45291358 -0.4825054 -0.47782028 -0.44292077 -0.3077693 0.20861247 -0.10168483 -0.59462255 0.09500526 0.0077402075 -0.5337698 0.41115996 0.2555443 -0.016468184 0.2711357 -0.27560085 -0.377999 -0.44537082 0.60450125 -0.31341496 -0.11273061 -0.12571199 -0.30895254 0.1252832 -0.24990265 -0.26430616 -0.13242447 -0.16778155 -0.4095432 -0.02124696 -0.11406667 -0.5893552
HTR2A -0.27939358 -0.096658826 0.19980259 0.31150606 0.7345119 -0.43808758 0.36355218 0.06532315 0.118669994 0.74902517 0.410987 -0.102387525 -0.034742303 -0.40853912 0.08808279 0.5920745 -0.48940736 0.40050107 -0.550146 0.49811414 0.31415814 -0.13743815 -0.010943948 0.122832626 -0.603232 0.24173145 -0.49147284 0.52134055 0.045558196 -0.01600751 -0.31334344 0.5045115 0.4887959 0.040208887 0.15470769 -0.2094493 0.06312652 0.30349138 0.07443217 0.1594014 -0.0019869301 1.0265595 0.07721747 0.33413556 0.9030535 -0.051068965 0.0254744 -0.07388595 -0.47511822 0.16831581 0.08983852 -0.8733207 -0.116154104 0.7196801 -0.4798687 0.10773031 -0.54839134 -0.28661758 -0.39449063 0.33232033 0.046707522 -0.0022352424 -0.024929062 -0.07530684 0.034834847 -0.07230402 0.22491227 0.34078106 -0.5174762 0.021327006 0.4254594 -0.104475796 -0.5668732 -0.225089 -0.17987008 -0.20791905 -0.15983552 -0.21506779 -0.7480867 0.31716076 0.427984 -0.4095665 0.053401463 0.28345567 0.36236897 0.5526071 -0.05938702 -0.35227528 -0.13635288 0.084055364 -0.65220106 -0.08697133 -0.14275801 -0.45474806 0.4333592 0.29185602 0.33763558 -0.29508007 -0.5556954 -0.48030633 0.12948604 0.30650514 -0.0825242 -0.5620034 0.11346667 -0.14948066 -0.27182445 0.49520308 0.23701213 0.11718272 0.18455753 -0.47367758 -0.2746122 -0.2718351 0.056597307 -0.12790473 -0.09224183 0.09236225 -0.521887 0.17797048 -0.21250567 -0.23983417 -0.16252472 0.049307156 -0.37748355 0.10671873 -0.089410014 -0.5010566
Acebutolol 0.6302101 -0.2509264 0.29126346 0.025369342 0.55522734 -0.093215525 0.12681538 0.20740587 0.14298476 -0.045407634 0.2858562 -0.0542521 -0.21817568 -0.19811657 0.6457379 -0.13971598 -0.29432085 -0.23726727 -0.20763227 0.46050492 0.48629856 0.103874356 -0.17475773 -0.04882389 -0.5128366 0.07440572 0.15404059 0.2735623 0.27298895 0.12597863 -0.08686401 0.27630752 0.13878086 -0.08468128 -0.07832449 0.03990393 -0.048190944 0.27375257 -0.081428796 0.14991473 0.06318869 0.34586725 -0.036798865 -0.09074014 0.7313143 -0.32197392 0.3733301 0.009017455 -0.1905264 0.36349106 -0.05430809 -0.20588487 0.2924734 0.15984492 -0.40000254 0.32390434 0.14840885 0.063743524 -0.06560573 -0.11741127 -0.43905333 -0.072701074 0.15438819 -0.07120171 0.6390578 -0.334231 0.33819336 -0.2509063 -0.31767035 -0.35629612 0.53720176 -0.20223993 -0.14208028 -0.33322656 0.0689103 -0.26973274 -0.052960336 -0.22133589 -0.39751095 0.04109256 -0.0798981 -0.2907886 -0.06421085 0.6616162 -0.34091887 0.3641421 -0.09186859 -0.46575123 0.43487835 0.5218418 -0.57971513 -0.2058038 0.04469663 0.013101135 -0.0455188 0.43346578 0.20394363 -0.31708628 -0.36948997 -0.31288314 -0.25934064 -0.11362366 0.13436076 -0.060132228 -0.14926888 0.026144823 -0.18187916 0.4715393 0.036091037 0.03763506 -0.0462337 -0.17014396 0.16823654 0.20880218 -0.10679298 -0.45529556 0.08635276 -0.30476817 0.048827842 0.1683338 -0.06465402 -0.5632246 -0.10839131 0.3778304 -0.16219552 -0.2895248 -0.0139290765 0.06388295
KCNMB1 0.43805707 -0.001333361 0.34254602 0.047119632 0.6094514 -0.26936612 0.019794188 0.2566623 -0.082415715 -0.07455497 0.16177516 -0.3104084 -0.016688133 -0.36654854 0.5000238 -0.018186808 -0.029848132 -0.094819166 -0.08775799 0.48624545 0.3561754 -0.09099743 -0.25679156 0.039989103 -0.6172861 0.17238648 0.13656993 0.30558044 0.1562941 0.14084494 -0.17596869 0.137042 0.14998624 -0.08548305 -0.21571757 -0.11709947 -0.032048203 0.19525298 -0.014560769 0.03620543 0.09598765 0.2777357 -0.04661272 0.06568655 0.65159166 -0.33442196 0.15857302 0.033665758 -0.08903311 0.43419173 -0.23272845 -0.08741986 0.4281278 0.11688058 -0.46336687 -0.14520827 0.10589005 0.21619032 0.059754804 0.02194341 -0.24555458 0.1379003 0.20679073 -0.0056299064 0.5269316 -0.17572188 0.030351594 -0.10714059 -0.3404903 -0.3944168 0.38435593 -0.006844595 -0.21861884 -0.039222166 0.02021409 -0.31548283 -0.2875697 -0.19201757 -0.4917235 0.23002632 0.058667254 -0.4871659 0.049856305 0.6803689 -0.2172537 0.43321928 -0.08093705 -0.2964443 0.39354408 0.3563603 -0.45075217 -0.17597502 0.12719643 0.21123084 -0.08711469 0.29281837 -0.029407127 -0.49469346 -0.103130005 -0.49291056 -0.3438915 -0.4839955 -0.06831587 -0.06484554 -0.11983129 -0.063151404 -0.19958776 0.4109453 0.14062501 -0.043998495 0.11543394 -0.095035836 0.009410213 0.096014194 -0.17061014 -0.43413895 0.2504548 -0.3594681 0.046221208 0.23863986 -0.24184765 -0.62403274 0.0542682 0.24509118 -0.20932993 -0.0407925 -0.055601962 0.014016866
NR3C2 0.6036948 0.08818452 0.19383985 -0.06180858 0.54453474 -0.29290035 0.0964277 0.19164266 -0.10548293 -0.040137947 0.2526558 -0.23991665 -0.008512208 -0.3625005 0.49285614 0.06762037 -0.10164673 -0.10700875 0.011201168 0.6337189 0.38235584 -0.080269516 -0.15251605 0.0831458 -0.5073437 0.13169461 0.12792845 0.34121516 0.030650187 0.14915782 -0.13853697 0.1501265 0.19082344 -0.10283735 -0.26207018 -0.12977311 -0.039837368 0.20638026 0.0029742983 0.103896685 0.031566296 0.20242842 -0.14258909 0.0008797166 0.7080238 -0.27438334 0.23917116 0.034383513 -0.03285709 0.44772148 -0.22469467 -0.16022016 0.41513318 0.08730805 -0.29747438 -0.12476415 0.064641826 0.29068536 -0.037409946 -0.004632039 -0.22389181 0.13589865 0.15557109 0.02946083 0.53734326 -0.11115568 0.10141911 -0.16906387 -0.41689554 -0.42011243 0.38917553 0.06581745 -0.22121678 -0.18520537 -0.04083499 -0.18840821 -0.2460737 -0.1982802 -0.55354494 0.20821074 0.13930938 -0.48989865 0.030579338 0.7292834 -0.15544909 0.41001186 0.06935034 -0.26855022 0.33831996 0.35709724 -0.382435 -0.13870895 0.17169216 0.16505307 -0.0799751 0.3045343 -0.0095938165 -0.4990757 -0.118340224 -0.4187981 -0.38866684 -0.45210075 0.0435256 -0.016359372 -0.24701172 0.053990737 -0.23071213 0.40887436 0.123612575 0.038963906 0.045858555 -0.10410072 0.07367657 0.10010181 -0.2343883 -0.38885224 0.08825336 -0.23214431 -0.020676512 0.26985684 -0.1775689 -0.75423646 0.022054657 0.252159 -0.24062277 -0.11756618 0.027482737 -0.057338577
AGTR1 0.44221795 0.040298067 0.35788274 -0.00075608067 0.5881994 -0.2513513 0.048761416 0.15042888 -0.008771781 -0.06848153 0.17834093 -0.29012445 0.036966685 -0.23141345 0.55388975 0.062440995 -0.11339353 -0.08914368 -0.036045678 0.50921226 0.29244566 -0.04320331 -0.31281224 0.07451092 -0.56018335 0.18198383 0.1267882 0.37206548 0.07937388 0.13056411 -0.1864702 0.103566654 0.11360557 -0.041550186 -0.28578222 -0.1916091 0.020573532 0.23649861 0.0156871 0.10087733 0.06966851 0.20219387 -0.06475813 -0.0069776173 0.65069705 -0.3219774 0.17790037 -0.06335676 -0.15222283 0.47450373 -0.30811414 -0.14496064 0.45557582 0.1354127 -0.3784596 -0.18059024 0.077619575 0.28201947 0.0031666958 0.016637271 -0.26879808 0.15548319 0.15526599 0.063941866 0.52320015 -0.04257741 0.09142112 -0.22153038 -0.36061203 -0.47921863 0.4322837 0.032943934 -0.22139972 -0.087110594 -0.08013443 -0.2381128 -0.15545106 -0.100993395 -0.44608828 0.2573156 0.08602844 -0.3900805 0.0015079338 0.65997416 -0.22655432 0.42798755 -0.0033936764 -0.30467552 0.39414817 0.3588997 -0.3950884 -0.15112607 0.14983821 0.03518173 -0.12837261 0.3561526 0.00061073125 -0.5499744 -0.13246344 -0.462192 -0.39579594 -0.37425953 -0.023746947 -0.01792507 -0.26363415 0.022050535 -0.1839196 0.48160166 0.078540646 -0.007877575 0.041653354 -0.09689733 -0.0013897838 0.04582774 -0.10478481 -0.44815606 0.22563286 -0.33321705 -0.030007422 0.19760068 -0.21794578 -0.738338 -0.0289756 0.24183454 -0.21719946 -0.13778894 0.016756156 -0.07047297
PTGIS 0.4840067 0.011749442 0.31644663 -0.027187578 0.4834606 -0.2733736 0.051622916 0.19577563 -0.026103515 -0.03376599 0.1497866 -0.27939636 -0.025612168 -0.33455887 0.6049044 0.05137652 -0.049848195 -0.10945052 0.0046578483 0.6014715 0.3400069 -0.08770812 -0.24851036 0.057027865 -0.4372222 0.07047161 0.023986464 0.29652202 0.11597699 0.13309205 -0.22462611 0.08636704 0.09988396 -0.015038182 -0.24874383 -0.08927363 -0.018066375 0.20750257 0.04723818 0.108486764 0.039608967 0.30722883 -0.13938133 -0.0339599 0.73490167 -0.26159588 0.2343973 0.0492225 -0.1527047 0.4045735 -0.30408534 -0.07023626 0.38253522 0.12324032 -0.42825165 -0.11559621 0.13836762 0.27343276 0.070235856 0.081252664 -0.23323219 0.20395367 0.18781273 0.054507133 0.46717328 -0.0934156 0.22951603 -0.10655178 -0.3636904 -0.4968056 0.4392376 0.05634585 -0.2637976 -0.13470045 -0.019599413 -0.31441304 -0.23363264 -0.075713515 -0.4448163 0.17110693 0.13169326 -0.4978759 0.082132645 0.71312624 -0.20707548 0.36829725 0.031100694 -0.30042693 0.3520117 0.41502216 -0.42956334 -0.18601456 0.18268794 0.08669584 -0.16518146 0.28592905 0.016193822 -0.5262402 -0.13025367 -0.53707975 -0.24673276 -0.49156994 -0.014407067 -0.11908366 -0.2764482 0.034492098 -0.19825639 0.49109015 0.10471681 0.051156536 0.067997985 -0.09025022 0.06545132 0.108356014 -0.14153388 -0.40757632 0.09225097 -0.31084812 -0.008292334 0.26962867 -0.15316562 -0.6909703 0.048417617 0.40579513 -0.14727078 -0.11773925 -0.020781985 -0.085659556
ADD1 0.54331815 0.0128584495 0.36893627 -0.023317963 0.5878345 -0.2432985 0.14450607 0.15643203 -0.108156 -0.10677344 0.0737536 -0.3572569 0.052188586 -0.265443 0.6544743 0.04017612 -0.08514509 -0.11324232 -0.050069436 0.557337 0.36133143 -0.05265785 -0.18350883 -0.03317876 -0.4940633 0.041478593 0.07696927 0.3870309 0.16370575 0.15811904 -0.22083877 0.12729128 0.22113162 -0.008698936 -0.28759968 -0.09511347 -0.038864598 0.23138025 0.10155978 0.049351934 0.018118635 0.25062424 -0.109481595 0.04288467 0.6563455 -0.35262328 0.20111924 0.062331397 -0.082285136 0.43308192 -0.27633417 -0.14162464 0.47522962 0.09175398 -0.4411151 -0.14274117 0.10003356 0.22762495 -0.035661902 0.02229059 -0.22153558 0.17320621 0.16730823 0.02954739 0.5486082 -0.15012729 0.11015357 -0.14831571 -0.28938207 -0.48466444 0.46469837 0.021191072 -0.2611521 -0.11666862 0.05577556 -0.31536153 -0.28569505 -0.20358163 -0.4736371 0.22580835 0.104350284 -0.424985 -0.022671787 0.65290207 -0.12279792 0.38464993 0.013656119 -0.300116 0.3921925 0.42804623 -0.44896168 -0.07677692 0.039269827 0.09043449 -0.06982522 0.3160886 0.022529772 -0.54780936 -0.056618627 -0.52787983 -0.30908108 -0.33316448 -0.07436034 -0.13744368 -0.2594197 -0.022314316 -0.23688878 0.32811302 0.12549263 0.07187067 0.088874914 -0.102492265 0.0040018465 0.11716654 -0.18390507 -0.46915063 0.14088045 -0.32266432 0.024388762 0.21535145 -0.24794815 -0.65735406 0.0027147979 0.2915694 -0.20079568 -0.123360254 -0.08682528 -0.051778134
AGT 0.5632481 0.018770898 0.40419942 0.018884825 0.5949231 -0.40745562 0.08659063 0.11122215 -0.06010215 -0.07207686 0.19021657 -0.3011468 0.02570997 -0.38100645 0.6355411 -0.0054648095 -0.10894416 -0.15318634 0.026504511 0.5229725 0.3641193 -0.1128793 -0.20820904 -0.0046592513 -0.47835657 0.14395659 0.109102935 0.3523381 0.108730786 0.1068418 -0.04884524 0.10667158 0.04681501 -0.039711088 -0.2891612 -0.16250898 -0.06033913 0.23314422 -0.0048819976 0.0808243 0.0985412 0.21435685 -0.11344121 0.037317 0.7292071 -0.1996436 0.19074467 0.1095297 -0.10979621 0.39043143 -0.30828175 -0.14880876 0.37369102 0.17033638 -0.43214366 -0.18390912 0.118113495 0.17382152 -0.009437816 0.020404499 -0.2772708 0.21999648 0.21080671 0.05662351 0.5193528 -0.12430981 0.13215324 -0.1558049 -0.3299808 -0.4336522 0.34453717 0.02868233 -0.23412088 -0.16210887 -0.111356765 -0.32993045 -0.244712 -0.24724752 -0.44052184 0.2050975 0.15959361 -0.40823787 -0.075695746 0.72703266 -0.17973325 0.34506163 -0.003271061 -0.37840095 0.30973694 0.46144193 -0.40125495 -0.21667834 0.049322464 0.12530798 -0.09862973 0.32018393 -0.057424366 -0.5611761 -0.042688433 -0.4252747 -0.30370107 -0.43204847 -0.07196426 -0.021964274 -0.31581596 0.03225404 -0.28271398 0.4876106 0.039911922 -0.043738116 0.09613809 -0.06995641 -0.005166292 0.10080747 -0.21535389 -0.44372988 0.16368294 -0.3257133 -0.03778419 0.24635895 -0.21796112 -0.6432816 0.06566631 0.19510251 -0.3077323 -0.14953578 -0.002312181 -0.04223897
ECE1 0.48299953 -0.062043346 0.26507834 -0.09730943 0.5919254 -0.28459337 0.053826418 0.21003409 -0.036975782 -0.08863959 0.15900278 -0.2917335 -0.06401494 -0.36683452 0.6231806 0.020996708 -0.0657024 -0.19375962 -0.12412401 0.534016 0.3541576 -0.112950765 -0.15090719 0.03178711 -0.47752604 0.13470377 0.11510326 0.35788468 0.02963457 0.0860937 -0.1783558 0.024934504 0.1811775 0.024547445 -0.19690208 -0.075245455 -0.019192247 0.20141892 -0.0687615 0.06316255 0.06078117 0.28166306 -0.09115871 0.009230973 0.71814287 -0.28796914 0.1427197 0.07910653 -0.06159975 0.47632283 -0.23296478 -0.12938888 0.37071416 0.20167959 -0.41987035 -0.05779523 0.095350504 0.20106573 -0.09259154 -0.034592472 -0.33559474 0.077565774 0.070348464 0.023971008 0.49654654 -0.10826835 0.12120517 -0.18569034 -0.3410619 -0.383721 0.38348052 0.004095896 -0.1879005 -0.11727813 0.036067743 -0.3203691 -0.26028895 -0.12090859 -0.45713186 0.29144526 0.06430594 -0.53436875 -0.0035623638 0.69035745 -0.21213081 0.40006116 0.04043226 -0.28406906 0.38189045 0.36678633 -0.49333712 -0.25671697 0.15182123 0.08884363 -0.16079734 0.27408192 0.041991185 -0.41295826 -0.11029963 -0.47644505 -0.30504405 -0.39787477 -0.06319447 -0.033697408 -0.25570288 -0.0020575328 -0.16055575 0.39683113 0.13944007 0.11178403 0.0015883321 -0.023859993 0.021038381 0.11064246 -0.23261692 -0.45307937 0.13240373 -0.35682237 0.006307267 0.32856172 -0.18611039 -0.6814757 -0.019565241 0.2825635 -0.2482104 -0.09721915 0.14356434 0.006599106
GNB3 0.47582987 -0.074795105 0.26243675 -0.07768761 0.60654855 -0.36246517 0.041388735 0.1623219 -0.1516037 -0.061765786 0.16177642 -0.2538068 -0.05595236 -0.2991142 0.59576684 0.04003591 -0.020052413 -0.2288071 -0.040786795 0.5538929 0.3399186 -0.060548805 -0.1580287 0.060006175 -0.49494913 0.15935607 0.16520092 0.4060344 0.08103763 0.12872702 -0.1442291 0.120061785 0.15800305 -0.04540327 -0.2191473 -0.1665261 -0.046729736 0.19411299 -0.04744952 0.041877896 0.0656745 0.21827067 -0.09217759 -0.015276325 0.60315543 -0.35348698 0.1682567 0.06305429 -0.002775069 0.3834899 -0.18658933 -0.079921514 0.44125745 0.13667572 -0.4091249 -0.10300231 0.17472386 0.25148132 -0.03531916 0.10989756 -0.3454256 0.1883422 0.14229085 -0.037160072 0.4859122 -0.15975265 0.16014837 -0.23123185 -0.2969933 -0.45810542 0.3547158 0.055886 -0.2459065 -0.11118869 -0.123135574 -0.30060345 -0.22419666 -0.2377412 -0.4304397 0.27536553 0.13600323 -0.47217435 0.05210384 0.7587258 -0.10158816 0.37240797 0.07457847 -0.25883603 0.3996568 0.40421095 -0.48808715 -0.17157626 0.11296619 0.09129381 -0.07027517 0.30723354 0.046348456 -0.4430456 -0.06343998 -0.36576203 -0.29312184 -0.44275224 0.026476119 -0.03990821 -0.31333053 -0.006240844 -0.26264477 0.42695892 0.07949876 -0.011918665 0.10685055 -0.035427984 0.036147166 -0.0022241047 -0.2675125 -0.40852603 0.08898263 -0.3280632 -0.010142044 0.29848346 -0.22199973 -0.67046624 0.016579937 0.2884013 -0.38055235 -0.16516735 0.0072092977 -0.034160193
RETN 0.35023302 0.13757938 0.16076434 0.24505527 0.1523031 -0.15825213 0.23621461 0.2668374 -0.010294832 -0.06836907 0.43805408 -0.1938232 -0.22210908 -0.16961196 0.40205935 -0.17819418 -0.06533981 -0.113522805 0.009826875 0.4040465 0.18479013 -0.18839249 0.016029384 0.20583971 -0.37242347 0.1420999 0.29793313 0.30507845 -0.12623644 0.20118913 -0.15662447 0.024910979 0.051998373 0.12265263 -0.3441941 0.0694061 -0.10028864 0.14128777 0.1427386 0.060184296 0.23337096 0.3715615 -0.30979335 -0.26729393 0.6316121 -0.47620174 0.26270255 0.0835337 -0.0699613 0.5269846 0.06483392 -0.10306477 0.35745195 0.026086094 -0.05351991 0.22996977 0.032896493 0.35454604 -0.15290642 0.10730078 -0.27439603 0.11797114 0.23253351 0.1105779 0.46643093 -0.16712691 0.17712422 -0.02063815 -0.47890034 -0.7049699 0.09151772 -0.028968839 0.13175926 -0.23144166 0.14476477 -0.07448845 -0.034661997 -0.35405886 -0.61040026 0.18401495 -0.018031461 -0.20937707 -0.05509545 0.6133296 -0.5543873 0.36378303 0.107841805 -0.6194065 0.34306824 0.38247338 -0.58118093 -0.20874992 -0.06845871 -0.10316198 -0.030760933 0.04476951 0.12336868 -0.5243157 0.0301469 -0.45782408 -0.4918516 -0.21494678 0.07145581 0.08648065 -0.22251752 -0.15094985 -0.10310867 0.3977269 0.11750201 -0.00024200711 0.08534136 -0.2220725 0.25148466 0.39306125 0.17938828 -0.5855249 0.09211432 -0.19486015 -0.103037514 0.45735294 -0.18975712 -0.83432686 -0.030363202 0.27858844 -0.45804003 -0.4910387 -0.24357148 -0.06166681
HSD11B2 0.5950002 0.027166607 0.31873712 -0.038962703 0.57150924 -0.26375335 0.03376161 0.22662722 -0.18819629 -0.013613656 0.16863482 -0.2783323 0.013298741 -0.27491227 0.6450433 0.04893686 -0.07304415 -0.1970084 -0.114868015 0.46475095 0.37221196 -0.05556824 -0.124362975 0.03776703 -0.44495538 0.21186633 0.11837737 0.30773556 0.1234784 0.16190405 -0.15595606 0.09023352 0.11516619 -0.075564586 -0.17470616 -0.24717288 -0.057644024 0.2462775 -0.072436094 0.09857486 0.04697564 0.31356812 -0.011676869 -0.034756884 0.6919006 -0.32241637 0.17885886 0.017109612 -0.11035221 0.40041178 -0.20578165 -0.030377872 0.4539186 0.18803668 -0.3710042 -0.022668347 0.15983562 0.21379188 -0.057767563 0.07677879 -0.32907116 0.16126135 0.14988056 0.06594237 0.43121088 -0.02328518 0.04876794 -0.16811572 -0.2780799 -0.45195693 0.3764228 0.035804704 -0.26715848 -0.06952795 0.052386157 -0.3588343 -0.19210836 -0.22566226 -0.46884978 0.20568043 0.050666668 -0.4138186 0.005055983 0.77187943 -0.18270248 0.39989707 0.043597598 -0.2975923 0.3299233 0.36887604 -0.42581388 -0.1239099 0.14919254 0.13562909 -0.052853346 0.31939903 -0.029257312 -0.45868134 -0.14147913 -0.4814199 -0.33902717 -0.3622403 -0.00064204505 -0.08302869 -0.34603894 -0.10437018 -0.30641314 0.45872828 0.11493725 0.029356884 0.0515894 -0.08459563 -0.017906193 0.10626386 -0.25046888 -0.4090668 0.13808161 -0.42127672 0.068462856 0.31007332 -0.1756974 -0.7181533 0.01987338 0.32965836 -0.2209513 -0.13992944 -0.013267391 0.0042260955
NOS3 0.39123124 -0.35888442 0.32251146 -0.2908206 0.5872816 -0.041043438 -0.023945965 0.43549398 -0.06645836 0.10964488 0.083248585 -0.3024629 0.08931691 -0.29533616 0.5060636 -0.19691058 -0.25627947 -0.12312397 -0.4433678 0.45633486 0.55047673 0.004428158 -0.32924128 0.022413185 -0.619417 0.23704578 0.048083156 0.32679206 0.31306183 -0.13866355 -0.019135803 0.17721356 0.56819385 -0.15254815 0.0106582595 -0.110306144 -0.14812088 0.36493063 -0.021909766 0.43912148 -0.007869397 0.15679015 0.17660467 0.29743576 0.62410015 -0.15028043 0.25484335 0.03420994 -0.046555083 0.3862891 -0.118525214 -0.041660447 0.59195054 0.37984002 -0.4701107 0.307418 0.22823416 0.010605823 -0.0986473 0.026937379 -0.36321056 -0.27810997 0.1407215 0.30192244 0.69195384 -0.08652093 0.108376205 -0.21130979 -0.26215088 -0.29876298 0.45077762 -0.14533666 -0.39271665 -0.35649592 0.13241608 -0.47207412 -0.21513104 -0.14057444 -0.27805603 0.2704849 -0.10020981 -0.1799602 0.16306464 0.3707075 -0.50327986 0.29553849 0.05048354 -0.10028479 0.28332305 0.3447112 -0.348759 0.17986856 0.20213102 -0.11764371 -0.13446617 0.10271687 -0.03135693 -0.28122485 -0.23626879 -0.430759 -0.2344738 -0.10643099 0.1763947 -0.1777704 -0.16350229 0.11358635 -0.3472352 0.19025289 -0.08110466 -0.03487521 -0.05905746 -0.1807623 0.25868434 0.01663484 -0.43589455 -0.39517435 0.22216767 -0.18737826 0.014860756 0.20996352 -0.052337725 -0.74946994 -0.04433612 0.3485063 -0.18482319 0.14112753 -0.09641223 -0.04790948
CYP3A5 0.5349652 0.041633777 0.34544063 -0.030347336 0.59811187 -0.38166803 0.06277212 0.20811187 0.011145163 -0.05525533 0.067481674 -0.33466178 -0.07658256 -0.28498873 0.46967494 0.042827778 -0.08340256 -0.111912146 -0.081709765 0.6276681 0.4475291 -0.06707877 -0.25750932 -0.009748324 -0.5306617 0.13516928 0.1148402 0.44768283 0.11619505 0.1896005 -0.2565652 0.0678558 0.15500358 -0.06077473 -0.23484875 -0.14353195 -0.034227464 0.24409255 -0.03711981 0.10470948 0.13846093 0.29953542 -0.14788924 0.0035451436 0.63539004 -0.33972576 0.22627258 0.003538433 -0.13790978 0.3909761 -0.31378552 -0.14687882 0.41211408 0.080813624 -0.4008933 -0.13295767 0.08311252 0.25527442 -0.00862334 0.016685419 -0.16216306 0.12397163 0.2244104 0.08568429 0.54938465 -0.14389983 0.09495759 -0.1581 -0.28896812 -0.43108886 0.3388317 0.035303198 -0.19972901 -0.121691436 -0.06652496 -0.2778636 -0.2744798 -0.010383502 -0.4233871 0.122952506 0.06265626 -0.4770924 0.06054083 0.63600254 -0.19775616 0.38526115 0.030740175 -0.28252167 0.43322322 0.29450822 -0.51168984 -0.24229749 0.10911315 0.07413977 -0.12052185 0.23807162 0.011911729 -0.42351472 -0.033110537 -0.5339379 -0.2861552 -0.4247796 -0.027556304 -0.027556084 -0.23053603 -0.006254265 -0.28244284 0.44803822 0.08976326 0.019187676 0.1245776 -0.11820999 0.07952259 0.08594434 -0.2759709 -0.4709976 0.1994944 -0.37702093 0.059181195 0.28364685 -0.30593848 -0.7189566 -0.005619685 0.25392509 -0.19524804 -0.20918597 -0.049565386 -0.0461291
Acetazolamide 0.3665345 -0.18063113 0.13675115 -0.19853343 0.5896665 -0.19669777 0.09280098 -0.43506914 0.030292857 -0.0065517826 -0.13408118 -0.30358818 0.07428467 -0.15667865 0.41988838 0.033325087 -0.26829556 0.05859739 0.024272075 0.3963669 -0.2432944 -0.2620073 -0.3176124 -0.19845414 -0.3322603 0.024186745 0.5715902 0.10059316 0.40525535 -0.23576105 0.07679802 0.33978966 -0.019305704 -0.5889599 -0.116059475 0.54728526 -0.15956682 0.3159401 -0.12086013 -0.387701 0.25667801 0.5764328 0.56811 -0.21619105 0.14099228 -0.023400966 0.007883061 0.04949264 -0.23230983 0.24773103 0.08719007 0.0847364 -0.09157839 0.5078996 -0.50270605 -0.5713659 0.2518131 -0.16746259 -0.13647963 -0.21910727 -0.46430257 0.14391185 -0.44580653 0.0819778 -0.09079126 -0.06917472 0.21114922 -0.05645723 -0.053280875 -0.55394155 -0.12150794 -0.32979494 -0.402171 -0.4378245 0.0017679703 0.31778106 -0.97316194 -0.095082775 -0.8635272 0.20122062 0.1793901 0.016132096 0.52297324 0.6848519 0.26639286 0.43488112 0.82504404 -0.17914468 0.5061961 0.32675627 -0.58890235 -0.418449 0.03465654 0.15102015 -0.18676512 0.53210443 -0.030638209 -0.5179382 0.59656906 -0.39553732 -0.44667086 0.16974291 -0.0429966 -0.21803574 0.10406002 -0.20653084 0.35719347 0.69735944 0.076480195 -0.26751894 -0.5197446 -0.07452503 -0.047177717 0.8441757 -0.16199741 -0.58542866 0.51992565 0.16682632 0.04826424 0.03956137 -0.53851146 -0.5199456 0.103338145 0.17647922 -0.49881595 -0.1552346 0.17854257 -0.38643003
ADRA2C 0.5093566 -0.27199775 0.18074027 -0.24851665 0.7521279 -0.007501126 0.2618004 0.14549883 -0.23366004 0.08027781 -0.17802824 -0.06533419 0.08739293 -0.17047407 0.429147 0.16420013 -0.34820947 -0.0022486935 0.115146205 0.7307562 0.46173334 0.20985255 -0.47884282 0.08003738 -0.26060766 -0.009408745 -0.035443787 0.49862504 0.277255 0.030175647 0.41010967 0.6340173 -0.19587795 -0.251507 0.057690978 0.16620117 0.11396031 -0.08985016 -0.21686049 -0.3591633 0.18170612 0.5081866 0.5473075 -0.08987275 0.5626198 -0.36551133 0.4797956 0.0495185 -0.257647 0.23627733 -0.4425775 -0.0048019933 0.32726893 0.24797451 -0.586589 -0.13229476 0.08984574 0.1251679 0.0685618 -0.3471365 -0.69090974 0.31415123 -0.1821427 0.24557069 0.5956095 0.30496836 0.08229852 -0.35190064 -0.023148054 -0.769946 -0.3109494 -0.25629702 -0.057823155 -0.032963533 0.05607761 0.16231571 -0.65034264 -0.19095266 -0.99984366 0.15169616 -0.28289834 -0.47962058 0.076067954 0.28433868 0.05117807 0.45701146 0.43964392 -0.18212214 0.05331619 0.38403454 -0.4960612 -0.23231663 -0.19797845 0.082870215 -0.31342044 0.52721256 -0.42133 -0.5393931 0.30806014 0.028976733 0.017592406 0.2340733 -0.06276001 0.08260787 -0.28755528 0.055558734 -0.030300157 0.24177535 0.24419215 -0.17233141 -0.2740977 -0.18366607 0.23182274 0.82422715 -0.064448185 -0.7920865 0.3225445 0.027799632 -0.039774656 0.1471698 -0.6692833 -0.27890176 -0.034182638 0.40250057 -0.21039961 -0.5615505 -0.21347556 -0.3790994
ADRB1 0.6030436 -0.24343234 0.23864561 -0.17087458 0.6767673 0.049924236 0.38323945 0.051902514 -0.19885388 -0.11222001 -0.26525316 -0.1418405 0.06926816 -0.12214915 0.5027747 0.13887097 -0.2832441 -0.013557154 0.074646205 0.68675596 0.43301284 0.2540692 -0.49774608 0.16584696 -0.3677396 0.07257139 -0.17487288 0.40678748 0.25969484 -0.013468133 0.22515948 0.59946454 -0.28458002 -0.2955723 0.0814944 0.11243968 0.1778337 -0.19078366 -0.20729287 -0.31357554 0.19836134 0.49218306 0.5189456 -0.18046111 0.47354412 -0.52895874 0.41611004 0.008008019 -0.351002 0.23922905 -0.28596473 -0.04741661 0.25111663 0.30160472 -0.6039361 -0.084951 -0.00046235792 0.077221476 0.035126064 -0.32210496 -0.5560907 0.27363276 -0.07811544 0.31717712 0.61927223 0.24164706 0.043877076 -0.40568408 -0.1380388 -0.69489104 -0.22424234 -0.25544915 -0.08565187 0.05828503 -0.008736585 0.22705933 -0.5443116 -0.17902614 -1.0948337 0.042983722 -0.16111033 -0.5502022 0.0945496 0.26800898 0.05775819 0.4214036 0.4313303 -0.191858 0.16382468 0.31671128 -0.45087224 -0.2685448 -0.23387392 0.10759824 -0.2487718 0.5879566 -0.38347617 -0.57472926 0.36836487 0.046493188 -0.075041875 0.28071603 -0.17305176 0.051824685 -0.36542726 -0.07704776 0.052386664 0.33919626 0.20021296 -0.0698261 -0.25996852 -0.0074489294 0.1444014 0.80107975 -0.018091008 -0.65205276 0.29884493 0.063901834 -0.003129419 0.17195827 -0.5750138 -0.20913815 0.09179931 0.36471975 -0.22930664 -0.6507154 -0.21642399 -0.3439097
KCNQ2 0.16557759 0.07949371 -0.14769763 -0.3476656 0.56285155 -0.14437008 0.010728796 -0.20126311 0.40912756 0.49804282 0.017636335 -0.24936952 0.16222948 -0.32187355 0.17690748 0.21782635 -0.28097633 0.17469174 -0.18110791 0.3254907 0.098644674 -0.51299065 -0.61192685 -0.36753967 -0.35841775 0.11324338 0.0884448 0.05072524 0.14553024 -0.03640819 -0.03767502 0.07851041 0.27305204 -0.20474663 -0.067785695 0.6862164 -0.16624321 0.045320418 0.107038245 -0.36849278 0.19141085 0.56445885 0.4362479 -0.20493643 -0.11157011 -0.09911331 -0.010887621 -0.3277802 -0.44327372 0.08996163 0.24968123 0.3405784 -0.20347744 0.6224692 -0.19745801 -0.58252394 0.30424446 -0.23415433 -0.36257616 0.18462944 -0.40198302 0.346776 -0.3477903 -0.039347634 -0.08612057 0.24525197 0.23209722 -0.16142352 -0.1713666 -0.3249885 -0.10954143 -0.02768225 -0.33487946 -0.72356194 0.12421879 0.0815135 -0.82319623 -0.13378431 -0.85044384 0.032712925 0.60432 -0.38342112 0.66182923 0.4606334 0.680289 0.41912064 0.8094442 -0.18700832 0.35539633 0.2510741 -0.26744834 -0.59054846 -0.038044 0.070118375 0.02793114 0.21468194 0.007826069 -0.38567308 0.57676136 -0.4613414 -0.29222596 0.2392084 0.11291987 -0.13260013 0.33363855 0.1091471 0.11410161 0.4374619 0.027924899 -0.20375201 -0.15668824 -0.2760139 -0.013298685 0.33169088 0.07060938 -0.49237424 0.07910006 0.005267288 -0.2570459 0.25886697 -0.34502944 -0.45367742 0.15481278 0.20416811 -0.65988547 0.12577677 -0.014886143 -0.3729074
KCNQ3 0.25939217 -0.026962608 -0.1529579 -0.29035616 0.46926266 -0.18410166 0.08188283 -0.21789874 0.4785443 0.45374906 -0.050256435 -0.27035493 0.060635306 -0.32359478 0.22386765 0.20439786 -0.20651312 0.20578854 -0.18820144 0.3412848 0.03833927 -0.4909721 -0.63932806 -0.3887415 -0.38119555 0.06493504 0.13156441 -0.0377994 0.079328835 -0.12249182 0.17616624 -0.0034029335 0.13284552 -0.31444097 -0.13456748 0.72437406 -0.12289589 0.082976565 0.042522494 -0.22523248 0.1366479 0.46577302 0.5373817 -0.31674108 -0.09353371 -0.010878658 -0.09151622 -0.16756018 -0.31536484 0.14889148 0.23661408 0.28523755 -0.24106598 0.66377014 -0.16267587 -0.4857417 0.3053188 -0.35883722 -0.4183599 0.11072872 -0.45765302 0.26115465 -0.3471263 -0.11029479 -0.09829655 0.24771912 0.26474828 -0.092312075 -0.19428493 -0.30465433 -0.19443019 -0.099641256 -0.31829712 -0.64015573 0.19254248 -0.008739709 -0.87083614 -0.0639482 -0.8364767 -0.031685192 0.61959714 -0.30836105 0.6381986 0.43379712 0.5605598 0.42993078 0.8228417 -0.21538003 0.47000235 0.25341034 -0.15896359 -0.49945626 -0.20902137 0.070448235 0.009604646 0.26662886 0.03919 -0.36568362 0.47378194 -0.42907953 -0.26327544 0.29385382 0.021615276 -0.09901521 0.33304745 0.0254658 0.14650586 0.4701762 0.025671396 -0.12599903 -0.27450362 -0.38663507 -0.05191634 0.30881378 0.058681626 -0.47135186 -0.04316894 -0.045551043 -0.2797281 0.22320005 -0.37219933 -0.40039518 0.20005612 0.03888543 -0.73608994 0.29816228 -0.1168242 -0.29062706
GABRG2 0.22225147 -0.084456906 -0.023664916 -0.35757342 0.58478206 -0.10852238 -0.012018108 -0.2742636 0.40758255 0.42446688 0.035613157 -0.24822977 0.07743085 -0.23034278 0.15404212 0.21832752 -0.37773746 0.22723377 -0.005308012 0.34497342 0.109382324 -0.45897993 -0.5652316 -0.39619434 -0.37146056 0.24402137 0.1363104 0.12143416 0.2630344 -0.057365067 0.11646792 0.026534552 0.25653094 -0.41116062 -0.11116211 0.7197511 -0.13159047 0.14321543 0.005212256 -0.28936857 0.071221486 0.50439674 0.5025029 -0.35551974 0.025938235 -0.043994203 -0.045390755 -0.20474851 -0.42355588 0.18157828 0.30892804 0.29116818 -0.19491357 0.61730856 -0.3173762 -0.411063 0.3422971 -0.18813568 -0.36680686 0.041694857 -0.39685866 0.36517474 -0.4614855 -0.053510632 -0.1619503 0.3156107 0.18777989 -0.13365506 -0.10613097 -0.370716 -0.0423137 -0.08309313 -0.28827646 -0.6418699 0.1531874 -0.027098348 -0.9047806 -0.029426977 -0.8066336 -0.004436104 0.5322134 -0.43877956 0.7766759 0.4420791 0.501675 0.3617151 0.73490995 -0.23305811 0.40824765 0.23596504 -0.18527542 -0.5306332 -0.16046007 0.08255179 0.09668183 0.3632045 0.109020285 -0.31423563 0.45208746 -0.39284313 -0.33807227 0.19506913 0.079807565 -0.038262136 0.45345584 0.14539704 0.18229519 0.48715696 0.068808675 -0.11585719 -0.24430329 -0.30725786 -0.10818636 0.32476532 0.026256375 -0.5863248 -0.059676908 0.04383579 -0.13756402 0.20700394 -0.5214747 -0.40722683 0.24861594 0.14359426 -0.69187605 0.12291345 -0.2330739 -0.31959733
CLCN2 0.28223264 -0.049947526 -0.14275648 -0.32129586 0.5652818 -0.10574892 0.054218244 -0.14551196 0.4754078 0.46722597 -0.011914583 -0.14902927 0.11369794 -0.22415937 0.10091805 0.24773358 -0.24832895 0.24664353 -0.17317618 0.3101759 0.10323178 -0.5195017 -0.6067041 -0.3705592 -0.36452675 0.21028556 0.1712646 0.036004845 0.14205162 -0.1096662 0.17715856 0.07369546 0.12835853 -0.2693641 -0.037023302 0.7286647 -0.049918346 0.1350648 0.043005187 -0.2931375 0.16174342 0.57372284 0.5775214 -0.38496143 0.0065622055 -0.122933775 -0.060845636 -0.24098554 -0.4350707 0.1279619 0.30305532 0.27746293 -0.17864338 0.6939595 -0.2702817 -0.4342861 0.31075215 -0.36277843 -0.44013202 0.15063737 -0.4518709 0.31894767 -0.38039625 -0.12907623 -0.08801204 0.29639155 0.2383617 -0.20496428 -0.15201537 -0.40049887 -0.1454378 -0.12778911 -0.353268 -0.5890629 0.07970503 0.00103377 -0.92556006 -0.11939387 -0.8124948 0.004175359 0.5820379 -0.5080953 0.60087544 0.4258987 0.6338345 0.398367 0.70943743 -0.1799292 0.34767243 0.22748053 -0.21457633 -0.4610413 -0.15810631 0.058330845 0.014165946 0.3249001 -0.0024027724 -0.388388 0.46245685 -0.44721317 -0.26845595 0.20038196 0.06522372 -0.050614297 0.32408682 0.0033153167 0.16342692 0.45166174 0.024666868 -0.12949501 -0.20034727 -0.27645868 -0.07923486 0.29867598 0.11776252 -0.5103501 -0.008051293 -0.08998613 -0.21025309 0.12992483 -0.38749737 -0.4046604 0.16217458 0.15626828 -0.66211843 0.19762602 -0.14586973 -0.2616233
JRK 0.19625734 0.049525212 -0.11942075 -0.21025772 0.45785567 -0.11491248 0.012553963 -0.21614966 0.5548572 0.48366916 -0.020356435 -0.23592457 0.08992088 -0.27767986 0.15676653 0.2300611 -0.39476043 0.2177968 -0.07885843 0.3362886 -0.009307927 -0.5235858 -0.6172507 -0.36332828 -0.38958645 0.21578403 0.059242133 0.09056227 0.2013157 -0.22076845 0.11738781 0.10484215 0.21055289 -0.33315846 -0.09144539 0.753169 -0.12886095 0.07912974 0.08852977 -0.1794427 0.16837288 0.614489 0.61126953 -0.28308848 -0.085438855 -0.009234106 -0.011159229 -0.110592805 -0.39122406 0.046279818 0.41560978 0.2723309 -0.21865043 0.6346509 -0.20762898 -0.48950058 0.27448994 -0.23064017 -0.40973514 0.23550186 -0.46907562 0.35144806 -0.4477656 0.012692959 -0.025054649 0.36357343 0.3089622 -0.17340966 -0.11793657 -0.44517368 -0.22092511 -0.09215081 -0.31443995 -0.62023866 0.12507403 -0.049562123 -0.8364709 -0.08477726 -0.8948041 -0.00901296 0.49135223 -0.40190914 0.7393638 0.48342556 0.5077257 0.4161357 0.7917701 -0.24488063 0.38821754 0.29404598 -0.2282075 -0.47384322 -0.11681847 0.0732304 0.04061409 0.20009074 -0.07069493 -0.32599023 0.5555033 -0.37498665 -0.25147822 0.24744277 0.060060084 0.0051889527 0.24168344 0.010682031 0.20434484 0.5807839 0.03518029 -0.17516188 -0.21208102 -0.38390297 -0.08173795 0.31601268 -0.028144795 -0.41496915 0.07083713 0.05714898 -0.19697644 0.1934713 -0.41472816 -0.387128 0.19480066 0.0761738 -0.6678137 0.14871068 -0.22805369 -0.30780688
CACNB4 0.3187212 -0.061838277 0.3205142 -0.32130045 0.28098452 0.064781666 -0.07437526 -0.35335693 0.3353109 0.39750835 0.090652056 -0.32975715 0.074304454 -0.33670795 0.20926091 0.20921746 -0.19407825 0.1725961 -0.40968773 0.16158049 0.22704247 -0.38753828 -0.25119933 -0.36897272 -0.22311668 0.1938497 0.110851966 -0.02553711 0.17732383 -0.3189281 0.30251428 -0.031040464 0.33630365 -0.17647706 -0.012810605 0.8371577 -0.15694913 0.46066236 0.05434406 -0.19171566 0.20118332 0.5588552 0.35420185 -0.5204912 0.06010778 -0.317829 -0.08835898 -0.66457874 -0.5642412 0.04445386 0.36731744 0.48978016 -0.17688842 0.68861663 -0.40925968 -0.17433217 0.423178 -0.40037808 -0.33402428 0.47994724 -0.34600174 0.52346694 -0.3273604 0.27797225 -0.1935996 0.3657543 -0.1950922 0.048764627 -0.059485912 -0.3324948 -0.30660143 -0.18005773 0.053217463 -0.7785742 0.095979154 -0.034923717 -0.7887565 -0.09118568 -0.5588188 0.2686255 0.32921287 -0.3040338 0.7174452 0.30056417 0.5462625 0.39069977 0.43167377 -0.4062094 0.26306587 0.11199128 -0.00043943312 -0.5557714 -0.100260034 0.15922111 0.2984168 0.26895145 -0.04698815 -0.43729654 0.7433608 -0.34042394 -0.14833914 0.06961161 0.29347858 -0.20721965 0.3576558 0.14242744 0.2843794 0.7621969 -0.090171866 -0.44103453 -0.3132523 -0.43276358 0.10878952 0.21435742 0.04647679 -0.43148166 0.04349539 0.26199394 -0.19979945 0.3292739 -0.41635755 -0.15550488 0.11237869 0.22077596 -0.6076791 0.09106177 -0.36711818 -0.52494097
SCN1A 0.19167513 -0.01519751 -0.20822045 -0.23822655 0.6533802 -0.1670618 0.07334307 -0.25790775 0.3922127 0.42761007 0.07686607 -0.17846526 0.14038782 -0.31391123 0.20734647 0.25367913 -0.20183064 0.14281213 -0.056899812 0.38300884 -0.06554263 -0.5655564 -0.5304983 -0.3650142 -0.2727863 0.07566905 0.14266424 0.06023482 0.06681526 -0.08746821 0.14421023 0.0020413108 0.23718958 -0.26143563 -0.094572134 0.7212079 -0.059164204 0.12752591 0.1200626 -0.2638909 0.06904472 0.53178537 0.55077153 -0.327765 0.012765362 0.007826435 -0.059001565 -0.12495313 -0.40852237 0.084899575 0.35656574 0.24598195 -0.2422618 0.7384343 -0.18443467 -0.542484 0.3403249 -0.22234872 -0.28815767 0.222689 -0.27789283 0.35899585 -0.43583667 -0.11229288 -0.02809285 0.2754524 0.2292872 -0.15595718 -0.14501795 -0.35054532 -0.1679957 -0.011151245 -0.3447356 -0.6961319 0.054220684 -0.07078053 -0.9024084 -0.114786685 -0.8717326 0.032951746 0.57317245 -0.43049225 0.5138873 0.5602997 0.6343459 0.45095435 0.86519665 -0.20641702 0.36760005 0.38265836 -0.19183148 -0.5614453 -0.13151781 0.036739 -0.02875361 0.36060762 0.0634098 -0.37658507 0.5522369 -0.31404278 -0.30499086 0.19972315 0.15262623 -0.021738626 0.37493622 0.039081898 0.13864009 0.52964413 0.107729495 -0.11783705 -0.18572907 -0.22728357 -0.07815342 0.22652258 0.05048442 -0.519684 0.06318087 -0.014067636 -0.25742444 0.099709705 -0.36766648 -0.48249793 0.16335483 0.04589589 -0.7465911 0.16860078 -0.20297262 -0.27422437
ME2 0.16006073 -0.062461793 -0.12800789 -0.26711655 0.44004425 -0.08351987 0.06941916 -0.20157824 0.46986887 0.48290467 -0.05150312 -0.122487515 0.07688746 -0.30060202 0.18204832 0.24491338 -0.25424263 0.27340555 -0.07635337 0.29139486 0.08609215 -0.45478138 -0.6170461 -0.42020592 -0.35433626 0.14050075 0.13652414 0.15314929 0.110693626 -0.107855216 0.11571483 -0.0052719344 0.21420114 -0.28602883 0.0086016515 0.7912131 -0.092124104 0.07769124 0.04565491 -0.3196947 0.09378026 0.5243203 0.61393386 -0.3447089 -0.029234739 -0.15144397 -0.060277294 -0.13839355 -0.39818278 0.12467169 0.28610379 0.20881066 -0.20942609 0.6574291 -0.3197079 -0.44175735 0.2636428 -0.341519 -0.31424958 0.12197813 -0.51535386 0.4640099 -0.36866188 -0.07798968 -0.012494875 0.38148397 0.19878471 -0.11762243 -0.1972004 -0.24186324 -0.17865555 -0.04009937 -0.31998986 -0.711862 0.12515019 0.00080480217 -0.90010977 -0.10835952 -0.7311126 -0.043946408 0.5280533 -0.27351695 0.7042349 0.52836794 0.6234381 0.44064996 0.86146325 -0.15628259 0.36195594 0.25143883 -0.16894759 -0.5037921 -0.14362216 0.014032489 0.08905071 0.34094203 -0.00046938998 -0.36380082 0.46166366 -0.35494408 -0.28638244 0.28238192 0.09157398 -0.06470277 0.30908963 0.13568918 0.14951718 0.4915432 0.002194821 -0.20444302 -0.11892992 -0.35312083 -0.076099776 0.30023083 0.09891781 -0.5072983 0.03911603 -0.014442179 -0.272873 0.1922005 -0.45025048 -0.43452448 0.081322886 0.04734165 -0.747645 0.13373454 -0.12973829 -0.25649676
GABRA1 0.1697091 -0.0025263827 -0.10273468 -0.26949638 0.5411324 -0.16224092 0.052759945 -0.24821648 0.43535924 0.4388916 -0.0071595046 -0.16978328 0.09080609 -0.29737225 0.27310404 0.26120847 -0.3417323 0.24668507 -0.15003172 0.2953529 0.12423116 -0.512733 -0.6519013 -0.30937448 -0.33572823 0.18966709 0.05323914 0.08566182 0.19248314 -0.11520661 0.10554405 0.07042392 0.25683975 -0.31407887 -0.110704035 0.7036196 -0.09310209 0.0086295605 0.047393914 -0.27168068 -0.04591284 0.44844595 0.4989376 -0.34605476 -0.09310381 -0.03033417 -0.00018012358 -0.095545754 -0.38409165 0.05586963 0.34988046 0.22370118 -0.2333705 0.66702485 -0.18568663 -0.5799372 0.23575532 -0.23963137 -0.38138273 0.2130054 -0.41819298 0.30729553 -0.3452451 -0.040401816 -0.074259646 0.38410115 0.31101128 -0.09437636 -0.100685276 -0.3993573 -0.2925134 -0.04522207 -0.29446292 -0.67216367 0.043869246 0.037117172 -0.84806126 -0.0636954 -0.97321606 -0.014780816 0.6480535 -0.52085936 0.65068364 0.4599413 0.57419205 0.41848952 0.86300623 -0.18710743 0.3509838 0.26915792 -0.22089973 -0.47881317 -0.09291566 0.01392852 0.03895916 0.28960016 -0.029787514 -0.45269755 0.39437407 -0.44332907 -0.2511538 0.27110544 0.072906494 -0.009721973 0.3192322 -0.008791372 0.094928265 0.42714158 -0.08645642 -0.07762024 -0.21358596 -0.3226243 -0.21518312 0.32795927 0.05866801 -0.48436403 -0.04378334 -0.036882397 -0.27323258 0.16625941 -0.41152135 -0.36018193 0.2611348 0.03458013 -0.7003783 0.17022476 -0.24019879 -0.28309515
EPM2A 0.19668606 -0.033108797 -0.22579902 -0.28920978 0.53549725 -0.087095164 0.051684126 -0.19119716 0.42591855 0.4553853 -0.013158002 -0.166109 0.1367281 -0.33950785 0.18064238 0.27366382 -0.24631381 0.288963 -0.20394242 0.36553514 0.12571578 -0.45076832 -0.58495235 -0.42091954 -0.30208248 0.13229664 0.15013741 0.025054421 0.10166246 -0.111816764 0.13309927 0.06389528 0.1164329 -0.286964 0.0040117344 0.70300996 -0.12085622 0.1453202 0.1095679 -0.3390855 0.13334438 0.5576991 0.6337801 -0.42482203 -0.11650574 -0.15944837 0.05025395 -0.15921962 -0.41605133 0.13722812 0.24048401 0.13529958 -0.16454034 0.6140615 -0.20423308 -0.4691986 0.26705125 -0.2980231 -0.26421514 0.12496142 -0.45311308 0.43003765 -0.4473582 -0.0008891871 -0.047432486 0.18874484 0.21085721 -0.13529895 -0.29233253 -0.2500816 -0.12549168 -0.08687524 -0.3948718 -0.6857954 0.16116244 0.008183508 -0.84932756 -0.1913593 -0.82453656 -0.012741182 0.65556747 -0.34010994 0.5410019 0.4737569 0.6563854 0.3645357 0.8479456 -0.16310823 0.45145223 0.33670112 -0.18685728 -0.7016875 -0.1085696 -0.022131994 0.03504054 0.36467412 0.025021832 -0.31391925 0.42208576 -0.37805292 -0.37676856 0.3202534 0.12761563 -0.10114475 0.3659522 0.040634982 0.20007172 0.47379637 -0.028199136 -0.09030827 -0.23929785 -0.32153565 -0.0012880624 0.27057981 0.08306891 -0.47973916 0.054386705 -0.044651594 -0.29654008 0.102150545 -0.36167166 -0.5182668 0.0690004 0.08720706 -0.6976471 0.212297 -0.09855559 -0.316522
NHLRC1 0.11860735 0.004961167 -0.046935175 -0.37043905 0.6124256 -0.09191585 0.11094354 -0.30632123 0.47014937 0.4220244 -0.039029595 -0.093620986 0.093597524 -0.22966354 0.1628189 0.26804096 -0.25029656 0.25355017 -0.12918241 0.27992395 0.05991851 -0.4585319 -0.54585564 -0.50908583 -0.38091365 0.27828658 0.05749222 0.08630099 0.16999674 -0.14241362 0.16639213 -0.0038893118 0.15263301 -0.16962595 -0.029357169 0.6945382 -0.19011775 0.07076684 -0.08428515 -0.2929091 0.053498607 0.61448705 0.63971174 -0.34356368 -0.018405361 -0.13717292 -0.02501006 -0.14199628 -0.38515064 0.17172252 0.23893188 0.3797248 -0.17028902 0.7236075 -0.37691697 -0.52112514 0.44982105 -0.27755263 -0.4124768 0.11985114 -0.50142545 0.444152 -0.31372958 -0.0024404037 -0.09070236 0.36316264 0.14139639 -0.10254226 -0.14300954 -0.32486516 -0.090608016 -0.012840995 -0.26971555 -0.7418115 0.11082906 0.08281404 -0.93166256 -0.06032455 -0.7418129 0.038872387 0.525259 -0.41762012 0.69695216 0.43178895 0.52537006 0.41771126 0.7290609 -0.22115476 0.35954347 0.24754979 -0.12653959 -0.66879857 -0.07680176 -0.00178472 0.0232092 0.3453388 -0.04435179 -0.30922595 0.48622638 -0.40614513 -0.34249637 0.27870083 0.046194036 -0.10354332 0.29405499 0.0716531 0.18579713 0.41950923 0.021939805 -0.27279276 -0.19817448 -0.41726443 -0.0851049 0.3757026 0.1078844 -0.43931693 0.07096869 -0.052313298 -0.16361558 0.13815288 -0.40970215 -0.3360025 0.18522984 0.12239728 -0.67685 0.19468267 -0.2028972 -0.3672576
SLC25A22 0.2724094 -0.045903534 -0.090478115 -0.39339188 0.5106393 -0.17865606 0.051906984 -0.23347726 0.47796306 0.4798756 0.007407727 -0.16314359 0.006493076 -0.29662743 0.22853115 0.22424665 -0.30955845 0.189184 -0.12095643 0.22376171 0.09777509 -0.41996622 -0.57736796 -0.37847558 -0.34666848 0.15089506 0.17545593 0.074351974 0.10119133 -0.10830858 0.08585667 0.015721552 0.22173348 -0.32407063 -0.0022116574 0.68000454 -0.15628672 0.08204654 -0.006102046 -0.33562884 0.1856319 0.5153572 0.48744512 -0.40239578 -0.1594035 -0.10612913 -0.04554588 -0.09742119 -0.356121 0.14589073 0.2593194 0.26142943 -0.21692716 0.6962263 -0.12104181 -0.490934 0.2795249 -0.2391857 -0.34928414 0.024962869 -0.4145692 0.371669 -0.4083553 -0.054245953 -0.09415433 0.25127038 0.29004323 -0.088016935 -0.07094696 -0.37860578 -0.1630908 -0.06302796 -0.2504594 -0.7259579 0.09327602 -0.0040273014 -0.8269198 -0.034187008 -0.8904729 -0.021873757 0.6046756 -0.3506324 0.6160244 0.44950745 0.6057281 0.38017467 0.8106394 -0.19372822 0.3923329 0.2886919 -0.27540737 -0.6349703 -0.105133116 0.06575882 0.08680488 0.28298596 0.012034231 -0.29980978 0.46324724 -0.45900595 -0.39568433 0.28237367 0.07884862 -0.07013846 0.2988837 0.00635216 0.14485522 0.52500427 -0.011624047 -0.09770917 -0.24478033 -0.4176527 -0.14500844 0.30939192 0.107737936 -0.49672884 0.011322789 -0.05239634 -0.2103053 0.13439727 -0.4192326 -0.43525186 0.10237583 0.032838844 -0.7141974 0.13217552 -0.14621645 -0.2855086
CHRNA4 0.13188395 -0.06349111 -0.15192093 -0.35165256 0.5393345 -0.15010945 0.016184967 -0.2872679 0.44568083 0.38522768 -0.0019415506 -0.17431189 0.09146174 -0.250544 0.28287295 0.20115261 -0.21373515 0.1417082 -0.19135073 0.3604629 -0.00091252854 -0.5370208 -0.5884467 -0.25840536 -0.38701576 0.16759512 0.13163672 -0.07401755 0.12257765 -0.059024766 0.15502559 0.017416604 0.0801527 -0.24709827 0.072398044 0.6818615 -0.18448327 0.029944483 0.01185485 -0.31830105 0.042406034 0.5320217 0.49381432 -0.32255784 0.00015071676 -0.06321596 -0.08482597 -0.27165824 -0.47120756 0.17867737 0.21386293 0.27109537 -0.21491563 0.6821093 -0.34741494 -0.51959705 0.38695928 -0.31355435 -0.29442224 0.14195102 -0.40982243 0.34398353 -0.37936223 -0.02173759 -0.072878405 0.34026212 0.14129604 -0.075888455 -0.1212407 -0.43807328 -0.15038812 -0.052518565 -0.33812308 -0.69174725 0.085210085 -0.058125403 -0.95166665 -0.10105805 -0.7781208 0.017521959 0.52833676 -0.37727505 0.6546967 0.36112982 0.59523565 0.5144126 0.76002157 -0.16850443 0.3954833 0.25688627 -0.18099307 -0.5630767 -0.18882212 -0.043180805 -0.013863554 0.2547339 0.06463713 -0.38172266 0.5765558 -0.46057305 -0.36131322 0.32486978 0.04957068 -0.0627821 0.32272628 0.024718313 0.11918965 0.37538937 -0.0077769295 -0.14922029 -0.25019392 -0.29942364 -0.049089972 0.32131284 0.012654299 -0.48843735 -0.00047843318 -0.07729511 -0.2072917 0.15743102 -0.42162842 -0.4394514 0.1682858 0.13819519 -0.7430116 0.12551668 -0.20608605 -0.43068203
CHRNB2 0.20022775 0.0594005 -0.21700287 -0.3459181 0.552595 -0.14295483 0.07582362 -0.30639094 0.4609289 0.38105527 0.0012006918 -0.09712991 0.047537014 -0.2828893 0.2117344 0.23190473 -0.30668873 0.1323798 -0.036653124 0.34060365 0.03975226 -0.49144742 -0.6341686 -0.4365498 -0.41115338 0.15447335 0.0974193 0.015856354 0.12696607 -0.12659548 0.1096701 0.030140527 0.20038526 -0.28127542 -0.13086921 0.72376966 -0.03777022 0.06631661 -0.03419097 -0.319925 0.2155701 0.42841643 0.5131937 -0.323126 -0.12885647 -0.07553338 -0.057865027 -0.222343 -0.28399578 0.07919122 0.3369938 0.26138043 -0.2611917 0.72247964 -0.21533547 -0.4627571 0.24933344 -0.18967502 -0.33117914 0.092660226 -0.44828108 0.43103552 -0.34747222 -0.10637826 -0.016691605 0.2709227 0.25873512 -0.16858667 -0.15941222 -0.38569206 -0.19185607 -0.0111909155 -0.3273905 -0.67895573 0.009332656 -0.09062887 -0.9858121 -0.16595106 -0.8562646 0.0016835021 0.63761985 -0.2976631 0.5674681 0.3875897 0.58782524 0.44041428 0.7395324 -0.13889667 0.45215887 0.37351084 -0.22839761 -0.5579509 -0.18363963 0.007779915 0.058557045 0.2723771 0.077482946 -0.44537643 0.5721014 -0.33650163 -0.36356285 0.36963558 0.06592213 -0.034885325 0.35522953 0.03327669 0.15644366 0.40330938 0.0030341612 -0.14854299 -0.20570199 -0.38405567 -0.07155079 0.36122498 0.08733181 -0.4753441 -0.07517719 -0.076015435 -0.26202396 0.06991959 -0.37875235 -0.33400762 0.17659178 0.028796215 -0.7441249 0.08054439 -0.17925425 -0.20204012
LGI1 0.022723539 -0.031132 -0.0774437 -0.15402672 0.68449384 -0.38218668 0.42533562 -0.2341592 0.5438779 0.43011832 0.1277018 0.06416194 -0.044636667 -0.11682349 -0.019093303 0.573977 -0.29880887 0.06577172 0.061960787 0.235428 -0.39601123 -0.5101276 -0.70747375 -0.46124753 -0.40404758 0.24760929 0.081676215 -0.35836875 0.023486266 0.015126903 0.052037276 0.054851804 0.23488991 -0.13363251 -0.16732709 0.68837595 0.045695763 0.3400284 -0.028653368 -0.19950849 0.16282305 0.45893836 0.5395723 -0.56108505 -0.037882827 0.14244461 -0.009833538 -0.33718264 -0.17991747 0.17557277 0.16021122 0.3619226 -0.35930088 0.61627185 -0.51578844 -0.23645285 0.43630457 -0.30063498 -0.15763733 0.030368367 -0.27277538 0.23260477 -0.21769357 -0.26326853 -0.11516841 0.113321304 -0.05186007 -0.035362307 -0.10930967 -0.49452782 -0.09443029 -0.23270275 -0.20631282 -0.9436157 0.30329046 0.23128419 -0.5984101 -0.11813139 -0.8476941 -0.27793297 -0.025726294 -0.6009769 0.45922077 0.4627048 0.40530106 0.39229253 0.79069656 0.052364048 0.52306855 0.30965668 -0.371888 -0.27255592 -0.23962794 0.07523646 -0.0071934746 0.38053364 0.16649869 -0.33773115 0.66220057 -0.21447925 -0.20724118 0.38754886 -0.016132178 -0.029105458 0.103247024 0.12510823 -0.04929967 0.27989286 -0.12492184 -0.08166173 -0.08673131 -0.16297558 -0.090585515 0.087811135 0.36623588 -0.56985295 0.022531394 -0.19311309 -0.06590621 0.006711643 -0.39404902 -0.24792679 0.008780458 -0.17378649 -0.58192396 0.40123275 -0.19792119 -0.28616375
CSTB 0.16155262 -0.029829778 -0.1282901 -0.27725914 0.5299733 -0.23140284 -0.0071731354 -0.38591275 0.4340901 0.4868768 -0.048133474 -0.14906847 0.061408106 -0.2485812 0.18996356 0.27458727 -0.23487265 0.22555599 -0.1719059 0.33851466 -0.028783543 -0.47048402 -0.6213502 -0.3644222 -0.36217904 0.25310335 0.1077381 -0.05182717 0.20002842 -0.13656814 0.13998987 0.0360443 0.106489375 -0.2686747 -0.065996505 0.7373186 -0.19948022 0.09014073 -0.06612576 -0.29601896 0.015078666 0.48449558 0.5979105 -0.3158664 -0.2463381 -0.14984843 -0.08641586 -0.23084563 -0.4064915 0.10128487 0.34421834 0.2789261 -0.16808498 0.622163 -0.2848244 -0.5031304 0.3278725 -0.26088324 -0.33021617 0.20184843 -0.45809397 0.34479302 -0.34469458 -0.11551903 -0.040850658 0.22369401 0.22308609 -0.085560255 -0.12044709 -0.3659407 -0.28179654 -0.11549959 -0.40342292 -0.70838183 0.27463293 0.025082424 -0.8236161 -0.09839608 -0.8305371 -0.026851622 0.5565542 -0.3971452 0.68379664 0.44957986 0.53513104 0.48430502 0.7516403 -0.2641832 0.424117 0.39261204 -0.092875555 -0.60110635 -0.10851062 0.09237422 -0.012851216 0.3239549 0.10029803 -0.39928514 0.47491652 -0.34091687 -0.27931675 0.23826025 0.09821094 -0.10910967 0.30128464 0.0071094837 0.13051784 0.44230714 -0.049659643 -0.24103734 -0.2048699 -0.30365795 -0.027030356 0.3908403 0.033786763 -0.5060307 0.05138452 -0.080726184 -0.17725447 0.12573703 -0.365325 -0.37068984 0.11857784 0.13545902 -0.6582088 0.1508556 -0.20231268 -0.33744314
SYN1 0.16406068 0.028758135 -0.09004928 -0.34860748 0.56060404 -0.076757334 0.01814392 -0.21641177 0.40290523 0.57940096 -0.044466257 -0.126329 0.17311761 -0.29110587 0.17530537 0.26897836 -0.25270042 0.2827549 -0.191543 0.32669204 0.0991327 -0.5514848 -0.7390188 -0.475454 -0.3821494 0.26713866 0.15493323 0.018778393 0.056856666 -0.1369109 0.15060066 0.034137335 0.26352474 -0.32287765 -0.076990806 0.6846332 -0.09540662 0.13285777 -0.057197988 -0.29308087 0.21712303 0.5415252 0.6024679 -0.4241238 0.035957582 -0.02217161 -0.058020227 -0.1791228 -0.362813 0.09039665 0.27304485 0.2546885 -0.214173 0.7351577 -0.33009484 -0.42684752 0.34935606 -0.31263322 -0.3426679 0.013042659 -0.4982604 0.38701385 -0.36681065 -0.109029196 -0.013709325 0.26274246 0.2206673 -0.08644475 -0.13410078 -0.4216569 -0.12248577 -0.05094839 -0.31784207 -0.74803954 0.18485847 -0.084271654 -0.8520936 -0.01760148 -0.75565475 -0.112419486 0.51281065 -0.30378294 0.6419694 0.37468863 0.6390291 0.45433372 0.62645316 -0.22533697 0.469811 0.26905885 -0.114282906 -0.52907324 -0.1278079 0.08437252 0.004945969 0.4152658 0.03633562 -0.31360433 0.5310756 -0.35768184 -0.31616253 0.2662691 0.032357857 -0.061964303 0.40479535 0.17595267 0.084365435 0.44260192 0.055572394 -0.13097899 -0.26421258 -0.3494212 -0.01819059 0.23869514 0.17843547 -0.53244346 0.0029752403 -0.15689641 -0.2870646 0.17745773 -0.3940553 -0.37349102 0.20180553 0.06772146 -0.64172244 0.16264127 -0.14015223 -0.30851158
MYOC 0.90897495 -0.26294443 0.4157309 -0.103150025 0.38765654 -0.27588 0.093257986 0.052351158 0.0018931895 -0.038927145 -0.18235004 -0.38289508 -0.4317591 -0.19448741 0.20204699 0.17494729 -0.21652627 -0.09140948 0.12847716 0.6480696 0.1555592 -0.3483871 -0.4772544 -0.48942593 -0.6779378 0.008367324 0.2425609 0.3061959 0.371566 -0.019925097 0.03490873 0.22012262 0.08853504 -0.45767397 -0.27416974 0.20961928 -0.03253872 0.4181117 -0.32945666 -0.13081023 0.16518034 0.3307375 0.07564548 -0.22569738 0.17094657 -0.4024165 -0.10873851 0.19440748 -0.19981349 0.3373513 0.34598863 0.2114128 0.2832479 0.591263 -0.32901892 0.046335045 0.081054136 0.061385997 -0.0033637234 -0.24769041 -0.28545955 0.13828073 -0.21354549 -0.19148107 0.12516855 -0.09789909 0.5169433 -0.24557038 -0.14511889 -0.54749626 0.50049615 0.050776318 -0.17483428 -0.6568672 0.16922118 -0.13138111 -0.6430349 -0.04756921 -0.3441269 0.021208692 0.42447904 -0.23157321 0.33613348 0.7344246 0.0021504904 0.7703019 0.23580836 -0.27702954 0.64079595 0.23539989 -0.60336864 0.013032711 0.16024588 0.28569865 0.3738246 0.3555968 0.15988018 -0.40851384 0.4546248 -0.5630876 -0.16164722 -0.01370578 0.21077627 -0.08367873 0.08073874 0.17208049 0.2187489 0.8802484 0.029723119 0.084278494 -0.013555293 -0.26310942 -0.07318763 0.2582604 -0.16690664 -0.6367387 -0.07262334 -0.025540091 -0.11622269 0.097881995 -0.21527492 -0.57352024 0.019468557 0.063847825 -0.353596 0.15250233 0.20094593 0.23762755
